{"learner":{"attributes":{"scikit_learn":"{\"_estimator_type\": \"classifier\"}"},"feature_names":["gender","married","dependents","education","self_employed","applicantincome","coapplicantincome","loanamount","loan_amount_term","credit_history","property_area"],"feature_types":["int","int","int","int","int","int","float","float","float","float","int"],"gradient_booster":{"model":{"cats":{"enc":[],"feature_segments":[],"sorted_idx":[]},"gbtree_model_param":{"num_parallel_tree":"1","num_trees":"80"},"iteration_indptr":[0,1,2,3,4,5,6,7,8,9,10,11,12,13,14,15,16,17,18,19,20,21,22,23,24,25,26,27,28,29,30,31,32,33,34,35,36,37,38,39,40,41,42,43,44,45,46,47,48,49,50,51,52,53,54,55,56,57,58,59,60,61,62,63,64,65,66,67,68,69,70,71,72,73,74,75,76,77,78,79,80],"tree_info":[0,0,0,0,0,0,0,0,0,0,0,0,0,0,0,0,0,0,0,0,0,0,0,0,0,0,0,0,0,0,0,0,0,0,0,0,0,0,0,0,0,0,0,0,0,0,0,0,0,0,0,0,0,0,0,0,0,0,0,0,0,0,0,0,0,0,0,0,0,0,0,0,0,0,0,0,0,0,0,0],"trees":[{"base_weights":[-1.4316319E-8,-2.580584E-1,4.4973847E-1,4.816572E-1,-9.26409E-2,2.1525784E-1,6.9468135E-1,-1.0567526E0,3.2604685E-1,8.916773E-1,2.3040266E-3,-2.0950994E-2,-1.3630362E-1,8.948099E-2,2.0459248E-2,9.596903E-2,-6.913828E-2,-7.2826795E-2,7.3250204E-2],"categories":[],"categories_nodes":[],"categories_segments":[],"categories_sizes":[],"default_left":[0,0,0,0,0,0,0,0,0,0,0,0,0,0,0,0,0,0,0],"id":0,"left_children":[1,-1,3,5,-1,7,9,11,13,15,17,-1,-1,-1,-1,-1,-1,-1,-1],"loss_changes":[1.1712856E2,0E0,4.221277E0,4.654501E0,0E0,5.8495474E0,6.352619E0,5.8777094E-1,2.3519702E0,4.568411E0,6.5734606E0,0E0,0E0,0E0,0E0,0E0,0E0,0E0,0E0],"parents":[2147483647,0,0,2,2,3,3,5,5,6,6,7,7,8,8,9,9,10,10],"right_children":[2,-1,4,6,-1,8,10,12,14,16,18,-1,-1,-1,-1,-1,-1,-1,-1],"split_conditions":[1E0,-2.580584E-1,7.25E3,1.612E1,-9.26409E-2,2.439E3,1.66E2,1E0,7.4E1,4.983E3,3.013E3,-2.0950994E-2,-1.3630362E-1,8.948099E-2,2.0459248E-2,9.596903E-2,-6.913828E-2,-7.2826795E-2,7.3250204E-2],"split_indices":[9,0,6,6,0,5,7,0,7,6,6,0,0,0,0,0,0,0,0],"split_type":[0,0,0,0,0,0,0,0,0,0,0,0,0,0,0,0,0,0,0],"sum_hessian":[9.892174E1,1.3978071E1,8.4943665E1,8.365338E1,1.2902836E0,3.8063366E1,4.559002E1,2.3655198E0,3.5697845E1,3.526775E1,1.03222685E1,1.0752363E0,1.2902836E0,5.1611342E0,3.053671E1,3.4192513E1,1.0752363E0,5.1611342E0,5.1611342E0],"tree_param":{"num_deleted":"0","num_feature":"11","num_nodes":"19","size_leaf_vector":"1"}},{"base_weights":[-1.2217622E-3,-2.1575265E-1,4.1191792E-1,-7.489511E-2,4.4813788E-1,6.4217705E-1,1.9430353E-1,7.377981E-1,-3.7942535E-1,-3.5526633E-1,4.3812615E-1,2.0466805E-2,1.00998215E-1,-1.17639795E-1,1.9272221E-2,-1.0413005E-1,1.3459654E-3,1.028788E-1,1.5781095E-2],"categories":[],"categories_nodes":[],"categories_segments":[],"categories_sizes":[],"default_left":[0,0,0,0,0,0,0,0,0,0,0,0,0,0,0,0,0,0,0],"id":1,"left_children":[1,-1,3,-1,5,7,9,11,13,15,17,-1,-1,-1,-1,-1,-1,-1,-1],"loss_changes":[8.958253E1,0E0,3.8840237E0,0E0,3.936884E0,4.8031273E0,5.135132E0,5.986511E0,2.3349106E0,3.0425377E0,4.1737256E0,0E0,0E0,0E0,0E0,0E0,0E0,0E0,0E0],"parents":[2147483647,0,0,2,2,4,4,5,5,6,6,7,7,8,8,9,9,10,10],"right_children":[2,-1,4,-1,6,8,10,12,14,16,18,-1,-1,-1,-1,-1,-1,-1,-1],"split_conditions":[1E0,-2.1575265E-1,1.625E3,-7.489511E-2,4.2E3,1.7E2,5.05E3,1.612E1,1.78E2,1E0,6.033E3,2.0466805E-2,1.00998215E-1,-1.17639795E-1,1.9272221E-2,-1.0413005E-1,1.3459654E-3,1.028788E-1,1.5781095E-2],"split_indices":[9,0,5,0,5,7,5,6,7,10,5,0,0,0,0,0,0,0,0],"split_type":[0,0,0,0,0,0,0,0,0,0,0,0,0,0,0,0,0,0,0],"sum_hessian":[9.856031E1,1.5168565E1,8.339174E1,1.9277726E0,8.146397E1,4.5302998E1,3.6160973E1,4.1679626E1,3.623372E0,1.09724E1,2.5188572E1,1.467922E1,2.7000406E1,1.0728445E0,2.5505276E0,3.1981056E0,7.7742944E0,7.2473407E0,1.794123E1],"tree_param":{"num_deleted":"0","num_feature":"11","num_nodes":"19","size_leaf_vector":"1"}},{"base_weights":[-1.9719854E-3,-1.8701099E-1,3.7792754E-1,9.203706E-2,5.3874475E-1,1.7606303E-1,-1.1638679E-1,7.888087E-1,2.6876715E-1,-1.2810543E-1,4.1157812E-1,9.155953E-1,-2.1604556E-1,-2.8458995E-1,5.969368E-1,2.1079767E-2,-1.4846082E-1,9.638898E-2,-1.2556319E-3,-5.5650543E-2,1.019771E-1,-1.0953148E-1,5.4923613E-2,4.5183193E-2,-4.5115035E-2,-3.367692E-2,7.068918E-2],"categories":[],"categories_nodes":[],"categories_segments":[],"categories_sizes":[],"default_left":[0,0,0,0,0,0,0,0,0,0,0,0,0,0,0,0,0,0,0,0,0,0,0,0,0,0,0],"id":2,"left_children":[1,-1,3,5,7,9,-1,11,13,15,17,19,21,23,25,-1,-1,-1,-1,-1,-1,-1,-1,-1,-1,-1,-1],"loss_changes":[7.080919E1,0E0,3.7625837E0,3.4822485E0,3.356656E0,2.200197E0,0E0,3.6281376E0,5.061094E0,6.6776447E0,4.0255394E0,4.263336E0,3.1758761E0,1.5168154E0,2.0070343E0,0E0,0E0,0E0,0E0,0E0,0E0,0E0,0E0,0E0,0E0,0E0,0E0],"parents":[2147483647,0,0,2,2,3,3,4,4,5,5,7,7,8,8,9,9,10,10,11,11,12,12,13,13,14,14],"right_children":[2,-1,4,6,8,10,-1,12,14,16,18,20,22,24,26,-1,-1,-1,-1,-1,-1,-1,-1,-1,-1,-1,-1],"split_conditions":[1E0,-1.8701099E-1,1E0,3.04E2,4E3,3.617E3,-1.1638679E-1,1.64E2,5.266E3,3.34E3,4.554E3,2.4E2,3.021E3,2.4E2,1E0,2.1079767E-2,-1.4846082E-1,9.638898E-2,-1.2556319E-3,-5.5650543E-2,1.019771E-1,-1.0953148E-1,5.4923613E-2,4.5183193E-2,-4.5115035E-2,-3.367692E-2,7.068918E-2],"split_indices":[9,0,1,7,5,5,0,7,5,5,5,8,6,8,3,0,0,0,0,0,0,0,0,0,0,0,0],"split_type":[0,0,0,0,0,0,0,0,0,0,0,0,0,0,0,0,0,0,0,0,0,0,0,0,0,0,0],"sum_hessian":[9.777687E1,1.58605795E1,8.191629E1,3.0056353E1,5.185994E1,2.8977438E1,1.0789152E0,2.5925219E1,2.5934723E1,1.2844626E1,1.613281E1,2.309949E1,2.8257291E0,9.704265E0,1.6230457E1,1.0952821E1,1.8918056E0,6.45476E0,9.678051E0,1.2396779E0,2.1859812E1,1.1142529E0,1.7114762E0,1.4740871E0,8.230178E0,1.4926353E0,1.4737823E1],"tree_param":{"num_deleted":"0","num_feature":"11","num_nodes":"27","size_leaf_vector":"1"}},{"base_weights":[-3.5801458E-3,-1.6600358E-1,3.4598926E-1,3.767824E-1,-8.627563E-2,9.090075E-2,5.4076064E-1,2.0581052E-1,-7.6849574E-1,1.0726736E-1,7.140547E-1,-1.4817162E-2,5.1467605E-2,-9.405959E-2,-1.7963037E-2,-7.9231635E-2,2.546129E-2,9.13541E-2,4.230407E-2],"categories":[],"categories_nodes":[],"categories_segments":[],"categories_sizes":[],"default_left":[0,0,0,0,0,0,0,0,0,0,0,0,0,0,0,0,0,0,0],"id":3,"left_children":[1,-1,3,5,-1,7,9,11,13,15,17,-1,-1,-1,-1,-1,-1,-1,-1],"loss_changes":[5.7110382E1,0E0,3.3567219E0,3.7068586E0,0E0,3.1609974E0,3.7332087E0,3.0949402E0,2.1589375E-1,2.2775433E0,1.7066135E0,0E0,0E0,0E0,0E0,0E0,0E0,0E0,0E0],"parents":[2147483647,0,0,2,2,3,3,5,5,6,6,7,7,8,8,9,9,10,10],"right_children":[2,-1,4,6,-1,8,10,12,14,16,18,-1,-1,-1,-1,-1,-1,-1,-1],"split_conditions":[1E0,-1.6600358E-1,7.25E3,1E0,-8.627563E-2,8.666E3,1E0,3.617E3,1.25E4,8.5E1,4.333E3,-1.4817162E-2,5.1467605E-2,-9.405959E-2,-1.7963037E-2,-7.9231635E-2,2.546129E-2,9.13541E-2,4.230407E-2],"split_indices":[9,0,6,1,0,5,10,5,5,7,5,0,0,0,0,0,0,0,0],"split_type":[0,0,0,0,0,0,0,0,0,0,0,0,0,0,0,0,0,0,0],"sum_hessian":[9.6636475E1,1.618658E1,8.044989E1,7.912251E1,1.3273814E0,2.9407494E1,4.9715015E1,2.6609993E1,2.7975006E0,1.4660618E1,3.5054398E1,1.2641824E1,1.396817E1,1.7026013E0,1.0948994E0,1.447286E0,1.3213331E1,1.9528618E1,1.5525781E1],"tree_param":{"num_deleted":"0","num_feature":"11","num_nodes":"19","size_leaf_vector":"1"}},{"base_weights":[-5.12892E-3,-1.4983013E-1,3.1631345E-1,-7.037353E-2,3.5086438E-1,5.284219E-1,1.2907135E-1,6.222928E-1,-3.967853E-1,-4.7021174E-1,3.2130852E-1,1.45053705E-2,8.855788E-2,-1.1060971E-1,1.4756371E-2,-7.119875E-2,7.235537E-2,6.926097E-2,9.190309E-3],"categories":[],"categories_nodes":[],"categories_segments":[],"categories_sizes":[],"default_left":[0,0,0,0,0,0,0,0,0,0,0,0,0,0,0,0,0,0,0],"id":4,"left_children":[1,-1,3,-1,5,7,9,11,13,15,17,-1,-1,-1,-1,-1,-1,-1,-1],"loss_changes":[4.672265E1,0E0,3.070445E0,0E0,3.0097017E0,3.9887686E0,4.3068643E0,4.835334E0,1.9313352E0,3.1609824E0,2.3133423E0,0E0,0E0,0E0,0E0,0E0,0E0,0E0,0E0],"parents":[2147483647,0,0,2,2,4,4,5,5,6,6,7,7,8,8,9,9,10,10],"right_children":[2,-1,4,-1,6,8,10,12,14,16,18,-1,-1,-1,-1,-1,-1,-1,-1],"split_conditions":[1E0,-1.4983013E-1,1.625E3,-7.037353E-2,4.2E3,1.7E2,4.75E3,1.612E1,1.78E2,3E0,6.033E3,1.45053705E-2,8.855788E-2,-1.1060971E-1,1.4756371E-2,-7.119875E-2,7.235537E-2,6.926097E-2,9.190309E-3],"split_indices":[9,0,5,0,5,7,5,6,7,2,5,0,0,0,0,0,0,0,0],"split_type":[0,0,0,0,0,0,0,0,0,0,0,0,0,0,0,0,0,0,0],"sum_hessian":[9.535775E1,1.6243208E1,7.911455E1,1.9574227E0,7.715712E1,4.208404E1,3.5073082E1,3.8504772E1,3.5792682E0,8.167037E0,2.6906046E1,1.4241389E1,2.4263382E1,1.1060592E0,2.4732091E0,7.1271415E0,1.0398955E0,9.504123E0,1.7401924E1],"tree_param":{"num_deleted":"0","num_feature":"11","num_nodes":"19","size_leaf_vector":"1"}},{"base_weights":[-5.4311426E-3,-1.3687597E-1,2.9045427E-1,-3.822941E-1,3.447286E-1,2.0224252E-1,-8.730836E-1,6.4860284E-1,1.8706818E-1,-2.3614138E-2,6.686393E-2,-6.120893E-3,-1.3253103E-1,-5.94351E-2,7.688465E-1,-8.357553E-1,2.854304E-1,2.6635727E-2,1.1391761E-1,-1.5094876E-1,-2.4925682E-3,9.3040586E-2,1.4365268E-2],"categories":[],"categories_nodes":[],"categories_segments":[],"categories_sizes":[],"default_left":[0,0,0,0,0,0,0,0,0,0,0,0,0,0,0,0,0,0,0,0,0,0,0],"id":5,"left_children":[1,-1,3,5,7,9,11,13,15,-1,-1,-1,-1,-1,17,19,21,-1,-1,-1,-1,-1,-1],"loss_changes":[3.868974E1,0E0,3.0098495E0,2.0007377E0,3.3982744E0,9.172652E-1,1.2569659E0,4.147094E0,5.2462063E0,0E0,0E0,0E0,0E0,0E0,3.9669504E0,2.4869125E0,4.0867233E0,0E0,0E0,0E0,0E0,0E0,0E0],"parents":[2147483647,0,0,2,2,3,3,4,4,5,5,6,6,7,7,8,8,14,14,15,15,16,16],"right_children":[2,-1,4,6,8,10,12,14,16,-1,-1,-1,-1,-1,18,20,22,-1,-1,-1,-1,-1,-1],"split_conditions":[1E0,-1.3687597E-1,2.045E3,1.08E2,3.358E3,7E1,2E0,3.6E2,3.617E3,-2.3614138E-2,6.686393E-2,-6.120893E-3,-1.3253103E-1,-5.94351E-2,1.619E3,1.01E2,4E3,2.6635727E-2,1.1391761E-1,-1.5094876E-1,-2.4925682E-3,9.3040586E-2,1.4365268E-2],"split_indices":[9,0,5,7,5,7,10,8,5,0,0,0,0,0,6,7,5,0,0,0,0,0,0],"split_type":[0,0,0,0,0,0,0,0,0,0,0,0,0,0,0,0,0,0,0,0,0,0,0],"sum_hessian":[9.392616E1,1.610311E1,7.782305E1,5.3585296E0,7.246452E1,2.7140205E0,2.644509E0,2.3690186E1,4.8774334E1,1.6535121E0,1.0605083E0,1.3522278E0,1.2922813E0,1.741851E0,2.1948336E1,3.6213086E0,4.5153027E1,1.0041952E1,1.1906383E1,1.5072502E0,2.1140583E0,7.134468E0,3.801856E1],"tree_param":{"num_deleted":"0","num_feature":"11","num_nodes":"23","size_leaf_vector":"1"}},{"base_weights":[-6.502572E-3,-1.261679E-1,2.6569545E-1,-2.3262413E-2,3.850108E-1,-7.5090647E-1,1.326223E-1,4.29733E-1,-7.979887E-2,6.9879144E-3,-1.2494315E-1,5.724228E-1,-2.392844E-1,1.0192428E-1,6.2185204E-1,-1.0048279E-2,8.347652E-2,1.2431719E-2,-1.0043173E-1,6.401306E-2,-4.0285126E-3,8.277536E-2,3.5228867E-2],"categories":[],"categories_nodes":[],"categories_segments":[],"categories_sizes":[],"default_left":[0,0,0,0,0,0,0,0,0,0,0,0,0,0,0,0,0,0,0,0,0,0,0],"id":6,"left_children":[1,-1,3,5,7,9,11,13,-1,-1,-1,15,17,19,21,-1,-1,-1,-1,-1,-1,-1,-1],"loss_changes":[3.225098E1,0E0,2.6841407E0,2.7786708E0,3.2513924E0,1.8538826E0,3.45763E0,3.3136015E0,0E0,0E0,0E0,1.7779899E0,3.380845E0,1.63383E0,1.5739555E0,0E0,0E0,0E0,0E0,0E0,0E0,0E0,0E0],"parents":[2147483647,0,0,2,2,3,3,4,4,5,5,6,6,7,7,11,11,12,12,13,13,14,14],"right_children":[2,-1,4,6,8,10,12,14,-1,-1,-1,16,18,20,22,-1,-1,-1,-1,-1,-1,-1,-1],"split_conditions":[1E0,-1.261679E-1,1E0,8.5E1,7.25E3,5.9E1,4.006E3,1E0,-7.979887E-2,6.9879144E-3,-1.2494315E-1,1.6E3,2.064E3,7.3E1,2E0,-1.0048279E-2,8.347652E-2,1.2431719E-2,-1.0043173E-1,6.401306E-2,-4.0285126E-3,8.277536E-2,3.5228867E-2],"split_indices":[9,0,10,7,6,7,5,1,0,0,0,6,6,7,10,0,0,0,0,0,0,0,0],"split_type":[0,0,0,0,0,0,0,0,0,0,0,0,0,0,0,0,0,0,0,0,0,0,0],"sum_hessian":[9.241474E1,1.582168E1,7.659306E1,2.2619123E1,5.3973938E1,3.3173273E0,1.9301796E1,5.262138E1,1.3525593E0,1.5784128E0,1.7389146E0,8.596637E0,1.070516E1,2.0009726E1,3.2611652E1,2.5844717E0,6.0121646E0,7.8240705E0,2.8810897E0,3.4503176E0,1.6559408E1,1.7315088E1,1.5296566E1],"tree_param":{"num_deleted":"0","num_feature":"11","num_nodes":"23","size_leaf_vector":"1"}},{"base_weights":[-7.284559E-3,-1.1708375E0,2.4302205E-1,-1.3593503E0,-7.9418E-1,-3.8412607E-1,2.951719E-1,-1.4397286E-1,-4.307173E-2,-3.1832737E-1,-1.2105729E-1,1.8109335E-1,-8.450584E-1,5.825591E-1,1.5132134E-1,-9.058862E-2,6.8823315E-2,-2.6029488E-2,4.5287862E-2,-1.069987E-2,-1.20959975E-1,-5.637904E-2,7.025542E-1,-7.8429407E-1,2.4480027E-1,8.6553924E-2,-3.4897033E-2,-1.4998168E-1,-1.2763503E-2,8.70259E-2,1.1380003E-2],"categories":[],"categories_nodes":[],"categories_segments":[],"categories_sizes":[],"default_left":[0,0,0,0,0,0,0,0,0,0,0,0,0,0,0,0,0,0,0,0,0,0,0,0,0,0,0,0,0,0,0],"id":7,"left_children":[1,3,5,7,9,11,13,-1,-1,15,-1,17,19,21,23,-1,-1,-1,-1,-1,-1,-1,25,27,29,-1,-1,-1,-1,-1,-1],"loss_changes":[2.7049513E1,8.784866E-2,2.6139627E0,9.287453E-2,1.1778283E0,1.7954412E0,2.8533664E0,0E0,0E0,3.603309E0,0E0,5.563764E-1,8.523216E-1,3.6127129E0,4.457342E0,0E0,0E0,0E0,0E0,0E0,0E0,0E0,4.006213E0,2.0017855E0,3.596332E0,0E0,0E0,0E0,0E0,0E0,0E0],"parents":[2147483647,0,0,1,1,2,2,3,3,4,4,5,5,6,6,9,9,11,11,12,12,13,13,14,14,22,22,23,23,24,24],"right_children":[2,4,6,8,10,12,14,-1,-1,16,-1,18,20,22,24,-1,-1,-1,-1,-1,-1,-1,26,28,30,-1,-1,-1,-1,-1,-1],"split_conditions":[1E0,1.29E2,2.045E3,2.067E3,5.316E3,1.08E2,3.358E3,-1.4397286E-1,-4.307173E-2,4.31E3,-1.2105729E-1,1E0,2E0,3.6E2,3.617E3,-9.058862E-2,6.8823315E-2,-2.6029488E-2,4.5287862E-2,-1.069987E-2,-1.20959975E-1,-5.637904E-2,1.56E2,9.7E1,4E3,8.6553924E-2,-3.4897033E-2,-1.4998168E-1,-1.2763503E-2,8.70259E-2,1.1380003E-2],"split_indices":[9,7,5,6,5,7,5,0,0,5,0,1,10,8,5,0,0,0,0,0,0,0,7,7,5,0,0,0,0,0,0],"split_type":[0,0,0,0,0,0,0,0,0,0,0,0,0,0,0,0,0,0,0,0,0,0,0,0,0,0,0,0,0,0,0],"sum_hessian":[9.0898476E1,1.5441392E1,7.5457085E1,8.5521555E0,6.8892365E0,5.304148E0,7.015294E1,7.364356E0,1.1877993E0,4.038518E0,2.8507185E0,2.655253E0,2.6488953E0,2.2384008E1,4.7768932E1,2.6131585E0,1.4253592E0,1.0280093E0,1.6272435E0,1.3034378E0,1.3454576E0,1.77059E0,2.0613419E1,3.6678598E0,4.410107E1,1.800027E1,2.6131473E0,1.1407931E0,2.5270667E0,6.659968E0,3.7441105E1],"tree_param":{"num_deleted":"0","num_feature":"11","num_nodes":"31","size_leaf_vector":"1"}},{"base_weights":[-1.1968522E-2,-1.102387E0,2.2054638E-1,-1.2824562E0,-7.4546945E-1,-5.148489E-2,3.351048E-1,-3.8065843E-2,-1.3641344E-1,-2.89709E-1,-1.15159206E-1,-7.090981E-1,9.5422566E-2,3.7737113E-1,-7.2416306E-2,2.856557E-2,-5.975834E-1,4.4756657E-3,-1.1401548E-1,5.0771576E-1,-2.3232643E-1,7.5100444E-2,5.6083584E-1,-9.201805E-2,2.9742538E-3,-1.22604845E-2,7.706916E-2,1.0422231E-2,-9.1306746E-2,-2.0764906E-2,3.1376924E-2,7.6272205E-2,3.0532623E-2],"categories":[],"categories_nodes":[],"categories_segments":[],"categories_sizes":[],"default_left":[0,0,0,0,0,0,0,0,0,0,0,0,0,0,0,0,0,0,0,0,0,0,0,0,0,0,0,0,0,0,0,0,0],"id":8,"left_children":[1,3,5,7,9,11,13,-1,-1,15,-1,17,19,21,-1,-1,23,-1,-1,25,27,29,31,-1,-1,-1,-1,-1,-1,-1,-1,-1,-1],"loss_changes":[2.3140882E1,7.484436E-2,2.3630183E0,1.6374683E-1,1.1039877E0,2.3063195E0,2.6506562E0,0E0,0E0,1.0556836E0,0E0,1.4645684E0,2.7965496E0,2.8260841E0,0E0,0E0,7.51441E-1,0E0,0E0,1.6017246E0,2.7824476E0,1.4613628E0,1.4193888E0,0E0,0E0,0E0,0E0,0E0,0E0,0E0,0E0,0E0,0E0],"parents":[2147483647,0,0,1,1,2,2,3,3,4,4,5,5,6,6,9,9,11,11,12,12,13,13,16,16,19,19,20,20,21,21,22,22],"right_children":[2,4,6,8,10,12,14,-1,-1,16,-1,18,20,22,-1,-1,24,-1,-1,26,28,30,32,-1,-1,-1,-1,-1,-1,-1,-1,-1,-1],"split_conditions":[1E0,1.29E2,1E0,2.4E2,1.67E2,8.5E1,7.25E3,-3.8065843E-2,-1.3641344E-1,1E0,-1.15159206E-1,5.9E1,4.006E3,1E0,-7.2416306E-2,2.856557E-2,3.975E3,4.4756657E-3,-1.1401548E-1,1.6E3,2.064E3,3.617E3,2E0,-9.201805E-2,2.9742538E-3,-1.22604845E-2,7.706916E-2,1.0422231E-2,-9.1306746E-2,-2.0764906E-2,3.1376924E-2,7.6272205E-2,3.0532623E-2],"split_indices":[9,7,10,8,7,7,6,0,0,1,0,7,5,1,0,0,5,0,0,6,6,5,10,0,0,0,0,0,0,0,0,0,0],"split_type":[0,0,0,0,0,0,0,0,0,0,0,0,0,0,0,0,0,0,0,0,0,0,0,0,0,0,0,0,0,0,0,0,0],"sum_hessian":[8.931272E1,1.5039811E1,7.427291E1,8.272891E0,6.7669196E0,2.2172504E1,5.210041E1,1.1571732E0,7.1157184E0,3.9959369E0,2.770983E0,3.3499644E0,1.8822538E1,5.0720337E1,1.3800718E0,1.4180366E0,2.5779002E0,1.5446934E0,1.805271E0,8.092919E0,1.072962E1,1.9689644E1,3.1030695E1,1.3941436E0,1.1837566E0,2.5395975E0,5.553322E0,7.746673E0,2.9829469E0,9.072031E0,1.0617613E1,1.6225395E1,1.4805299E1],"tree_param":{"num_deleted":"0","num_feature":"11","num_nodes":"33","size_leaf_vector":"1"}},{"base_weights":[-1.5541906E-2,-1.0439471E0,2.0093787E-1,-1.2162567E0,-7.054729E-1,-3.7511477E-1,2.5032777E-1,-3.6240723E-2,-1.294973E-1,-2.624398E-1,-1.1079877E-1,1.7222229E-1,-8.1509006E-1,5.289619E-1,1.1503981E-1,-8.133168E-2,6.316551E-2,-2.2321645E-2,4.2206068E-2,-1.4654337E-2,-1.1071717E-1,1.2667605E-1,8.898643E-1,-7.3441714E-1,2.0317183E-1,3.544573E-2,-1.0660821E-1,1.0100867E-1,1.1873024E-2,-1.18924156E-1,8.442716E-3,7.275426E-2,6.0649174E-3],"categories":[],"categories_nodes":[],"categories_segments":[],"categories_sizes":[],"default_left":[0,0,0,0,0,0,0,0,0,0,0,0,0,0,0,0,0,0,0,0,0,0,0,0,0,0,0,0,0,0,0,0,0],"id":9,"left_children":[1,3,5,7,9,11,13,-1,-1,15,-1,17,19,21,23,-1,-1,-1,-1,-1,-1,25,27,29,31,-1,-1,-1,-1,-1,-1,-1,-1],"loss_changes":[1.9982008E1,5.2116394E-2,2.2051797E0,1.3290405E-1,1.0726349E0,1.6479293E0,2.538156E0,0E0,0E0,2.9517798E0,0E0,4.5138723E-1,5.49495E-1,3.118669E0,3.7194862E0,0E0,0E0,0E0,0E0,0E0,0E0,3.554188E0,9.5231915E-1,1.8506317E0,3.2434855E0,0E0,0E0,0E0,0E0,0E0,0E0,0E0,0E0],"parents":[2147483647,0,0,1,1,2,2,3,3,4,4,5,5,6,6,9,9,11,11,12,12,13,13,14,14,21,21,22,22,23,23,24,24],"right_children":[2,4,6,8,10,12,14,-1,-1,16,-1,18,20,22,24,-1,-1,-1,-1,-1,-1,26,28,30,32,-1,-1,-1,-1,-1,-1,-1,-1],"split_conditions":[1E0,1.29E2,2.045E3,2.4E2,5.316E3,1.08E2,3.358E3,-3.6240723E-2,-1.294973E-1,4.31E3,-1.1079877E-1,1E0,2E0,1.733E3,3.617E3,-8.133168E-2,6.316551E-2,-2.2321645E-2,4.2206068E-2,-1.4654337E-2,-1.1071717E-1,1.36E2,3.8E3,1E0,4.166E3,3.544573E-2,-1.0660821E-1,1.0100867E-1,1.1873024E-2,-1.18924156E-1,8.442716E-3,7.275426E-2,6.0649174E-3],"split_indices":[9,7,5,8,5,7,5,0,0,5,0,1,10,6,5,0,0,0,0,0,0,7,6,1,5,0,0,0,0,0,0,0,0],"split_type":[0,0,0,0,0,0,0,0,0,0,0,0,0,0,0,0,0,0,0,0,0,0,0,0,0,0,0,0,0,0,0,0,0],"sum_hessian":[8.781254E1,1.4605502E1,7.320704E1,7.959929E0,6.6455736E0,5.2602167E0,6.7946815E1,1.1449046E0,6.8150244E0,3.9499788E0,2.6955948E0,2.6153004E0,2.6449163E0,2.125693E1,4.6689888E1,2.5000029E0,1.449976E0,1.0538485E0,1.5614519E0,1.2607961E0,1.3841202E0,1.0691014E1,1.0565915E1,3.6994774E0,4.2990414E1,9.566855E0,1.1241585E0,8.872752E0,1.6931628E0,2.0875907E0,1.6118867E0,8.310306E0,3.4680107E1],"tree_param":{"num_deleted":"0","num_feature":"11","num_nodes":"33","size_leaf_vector":"1"}},{"base_weights":[-1.8454319E-2,-9.9104995E-1,1.8286994E-1,-1.0252607E0,-2.851866E-2,-7.437676E-2,2.9311556E-1,-1.1494157E0,-4.5155618E-1,-6.862194E-1,6.6956595E-2,-6.6983186E-2,3.330062E-1,-1.2125053E-1,-3.1011704E-2,2.6714614E-2,-9.2392534E-2,1.3365295E-3,-1.0598469E-1,2.0710859E-1,-8.145348E-2,1.3934958E-1,5.2228874E-1,-2.1816207E-2,3.8678106E-2,4.1242074E-2,-1.6664686E-2,7.371061E-2,1.6437681E-2],"categories":[],"categories_nodes":[],"categories_segments":[],"categories_sizes":[],"default_left":[0,0,0,0,0,0,0,0,0,0,0,0,0,0,0,0,0,0,0,0,0,0,0,0,0,0,0,0,0],"id":10,"left_children":[1,3,5,7,-1,9,11,13,15,17,19,-1,21,-1,-1,-1,-1,-1,-1,23,-1,25,27,-1,-1,-1,-1,-1,-1],"loss_changes":[1.7268372E1,7.276535E-2,2.096178E0,4.8081875E-1,0E0,2.0123851E0,2.1975942E0,2.0076561E-1,1.6538131E0,1.1527827E0,2.5634716E0,0E0,1.7609844E0,0E0,0E0,0E0,0E0,0E0,0E0,1.4232479E0,0E0,2.2489002E0,1.795989E0,0E0,0E0,0E0,0E0,0E0,0E0],"parents":[2147483647,0,0,1,1,2,2,3,3,5,5,6,6,7,7,8,8,9,9,10,10,12,12,19,19,21,21,22,22],"right_children":[2,4,6,8,-1,10,12,14,16,18,20,-1,22,-1,-1,-1,-1,-1,-1,24,-1,26,28,-1,-1,-1,-1,-1,-1],"split_conditions":[1E0,4.083E3,1E0,1.6E2,-2.851866E-2,8.5E1,1.625E3,2.275E3,1.67E2,5.9E1,9.538E3,-6.6983186E-2,1.612E1,-1.2125053E-1,-3.1011704E-2,2.6714614E-2,-9.2392534E-2,1.3365295E-3,-1.0598469E-1,1E0,-8.145348E-2,2E0,2.436E3,-2.1816207E-2,3.8678106E-2,4.1242074E-2,-1.6664686E-2,7.371061E-2,1.6437681E-2],"split_indices":[9,6,10,7,0,7,5,6,7,7,5,0,6,0,0,0,0,0,0,3,0,10,6,0,0,0,0,0,0],"split_type":[0,0,0,0,0,0,0,0,0,0,0,0,0,0,0,0,0,0,0,0,0,0,0,0,0,0,0,0,0],"sum_hessian":[8.626516E1,1.412153E1,7.214363E1,1.303717E1,1.0843587E0,2.1740284E1,5.0403347E1,9.892782E0,3.1443887E0,3.3561099E0,1.8384174E1,1.3767737E0,4.9026573E1,8.787561E0,1.1052202E0,1.4193399E0,1.7250489E0,1.50408E0,1.8520298E0,1.6522276E1,1.8618981E0,2.5091467E1,2.3935104E1,4.84361E0,1.1678666E1,1.3075288E1,1.201618E1,1.4295522E1,9.639583E0],"tree_param":{"num_deleted":"0","num_feature":"11","num_nodes":"29","size_leaf_vector":"1"}},{"base_weights":[-2.1032395E-2,-9.403773E-1,1.6550669E-1,-1.1060193E0,-6.2645143E-1,-7.417566E-2,2.697101E-1,-1.1894243E-1,-2.8870463E-2,-2.0253794E-1,-1.028983E-1,-6.3462687E-1,5.7628326E-2,3.0930078E-1,-6.585924E-2,-7.3157296E-2,6.0516294E-2,1.2567651E-3,-9.747478E-2,4.1475964E-1,-2.5242844E-1,4.0844727E-2,4.8037317E-1,-2.8313238E-2,6.0845967E-2,-6.220385E-2,3.2607734E-2,5.6764778E-2,-9.260223E-3,6.752478E-2,2.4589928E-2],"categories":[],"categories_nodes":[],"categories_segments":[],"categories_sizes":[],"default_left":[0,0,0,0,0,0,0,0,0,0,0,0,0,0,0,0,0,0,0,0,0,0,0,0,0,0,0,0,0,0,0],"id":11,"left_children":[1,3,5,7,9,11,13,-1,-1,15,-1,17,19,21,-1,-1,-1,-1,-1,23,25,27,29,-1,-1,-1,-1,-1,-1,-1,-1],"loss_changes":[1.4882097E1,6.8110466E-2,1.8241843E0,2.2059059E-1,1.0476587E0,1.7114551E0,2.062031E0,0E0,0E0,2.5067337E0,0E0,9.808481E-1,2.2388415E0,2.2388082E0,0E0,0E0,0E0,0E0,0E0,1.4342011E0,2.5416553E0,1.4749588E0,1.2021375E0,0E0,0E0,0E0,0E0,0E0,0E0,0E0,0E0],"parents":[2147483647,0,0,1,1,2,2,3,3,4,4,5,5,6,6,9,9,11,11,12,12,13,13,19,19,20,20,21,21,22,22],"right_children":[2,4,6,8,10,12,14,-1,-1,16,-1,18,20,22,-1,-1,-1,-1,-1,24,26,28,30,-1,-1,-1,-1,-1,-1,-1,-1],"split_conditions":[1E0,1.29E2,1E0,2.067E3,5.316E3,8.5E1,7.25E3,-1.1894243E-1,-2.8870463E-2,4.31E3,-1.028983E-1,5.9E1,4.188E3,1E0,-6.585924E-2,-7.3157296E-2,6.0516294E-2,1.2567651E-3,-9.747478E-2,2.297E3,2E0,7.3E1,2E0,-2.8313238E-2,6.0845967E-2,-6.220385E-2,3.2607734E-2,5.6764778E-2,-9.260223E-3,6.752478E-2,2.4589928E-2],"split_indices":[9,7,10,6,5,7,6,0,0,5,0,7,5,1,0,0,0,0,0,5,2,7,10,0,0,0,0,0,0,0,0],"split_type":[0,0,0,0,0,0,0,0,0,0,0,0,0,0,0,0,0,0,0,0,0,0,0,0,0,0,0,0,0,0,0],"sum_hessian":[8.487168E1,1.3634385E1,7.12373E1,7.273409E0,6.3609767E0,2.1673468E1,4.956383E1,6.1867795E0,1.0866292E0,3.8303375E0,2.530639E0,3.4002297E0,1.8273237E1,4.817601E1,1.3878219E0,2.3713696E0,1.4589679E0,1.503109E0,1.8971207E0,8.335038E0,9.9382E0,1.9233118E1,2.894289E1,1.7104964E0,6.6245418E0,6.018013E0,3.9201868E0,3.2296865E0,1.6003431E1,1.47795515E1,1.416334E1],"tree_param":{"num_deleted":"0","num_feature":"11","num_nodes":"31","size_leaf_vector":"1"}},{"base_weights":[-2.2444738E-2,-8.9736074E-1,1.5100095E-1,-3.8561258E-1,-9.681896E-1,-3.5269567E-1,1.9594823E-1,-7.549117E-2,2.1250103E-2,-1.10444166E-1,-4.926912E-1,1.6384315E-1,-7.5945854E-1,4.5694593E-1,7.486392E-2,2.5683274E-2,-9.285041E-2,-2.2403995E-2,4.0948797E-2,-1.0176181E-1,-6.360321E-3,-5.6892633E-2,5.8114725E-1,-6.9935155E-1,1.57976E-1,1.1015254E-2,9.93986E-2,-1.2962984E-1,-1.20558245E-2,7.517219E-2,4.653101E-3],"categories":[],"categories_nodes":[],"categories_segments":[],"categories_sizes":[],"default_left":[0,0,0,0,0,0,0,0,0,0,0,0,0,0,0,0,0,0,0,0,0,0,0,0,0,0,0,0,0,0,0],"id":12,"left_children":[1,3,5,7,9,11,13,-1,-1,-1,15,17,19,21,23,-1,-1,-1,-1,-1,-1,-1,25,27,29,-1,-1,-1,-1,-1,-1],"loss_changes":[1.2961342E1,1.387186E-1,1.6854105E0,9.068894E-1,2.1696472E-1,1.4283445E0,2.0574527E0,0E0,0E0,0E0,1.6828961E0,4.3061668E-1,5.908468E-1,2.9781642E0,3.0966318E0,0E0,0E0,0E0,0E0,0E0,0E0,0E0,3.5907135E0,1.4617836E0,2.7920766E0,0E0,0E0,0E0,0E0,0E0,0E0],"parents":[2147483647,0,0,1,1,2,2,3,3,4,4,5,5,6,6,10,10,11,11,12,12,13,13,14,14,22,22,23,23,24,24],"right_children":[2,4,6,8,10,12,14,-1,-1,-1,16,18,20,22,24,-1,-1,-1,-1,-1,-1,-1,26,28,30,-1,-1,-1,-1,-1,-1],"split_conditions":[1E0,2.484E3,2.045E3,1.868E3,1.6E2,1.08E2,3.358E3,-7.549117E-2,2.1250103E-2,-1.10444166E-1,5.316E3,1.125E3,2.934E3,3.6E2,3.617E3,2.5683274E-2,-9.285041E-2,-2.2403995E-2,4.0948797E-2,-1.0176181E-1,-6.360321E-3,-5.6892633E-2,1.619E3,9.7E1,4E3,1.1015254E-2,9.93986E-2,-1.2962984E-1,-1.20558245E-2,7.517219E-2,4.653101E-3],"split_indices":[9,5,5,6,7,7,5,0,0,0,5,6,6,8,5,0,0,0,0,0,0,0,6,7,5,0,0,0,0,0,0],"split_type":[0,0,0,0,0,0,0,0,0,0,0,0,0,0,0,0,0,0,0,0,0,0,0,0,0,0,0,0,0,0,0],"sum_hessian":[8.35193E1,1.312729E1,7.039201E1,2.3794837E0,1.0747807E1,5.2058916E0,6.518612E1,1.3090624E0,1.0704215E0,7.325898E0,3.4219081E0,2.5565677E0,2.649324E0,1.9778881E1,4.5407238E1,1.4091284E0,2.0127797E0,1.0253888E0,1.5311788E0,1.5951362E0,1.0541878E0,1.7493129E0,1.802957E1,3.6831324E0,4.1724106E1,9.013345E0,9.016224E0,1.2028744E0,2.4802582E0,5.68593E0,3.6038177E1],"tree_param":{"num_deleted":"0","num_feature":"11","num_nodes":"31","size_leaf_vector":"1"}},{"base_weights":[-2.4256429E-2,-8.552093E-1,1.3681479E-1,-8.9181685E-1,-1.9642686E-2,-8.6914934E-2,2.3567437E-1,-1.0721806E0,-4.3288627E-1,1.00014545E-2,-7.320662E-2,2.7437016E-1,-6.38045E-2,-3.4446772E-2,-1.1503261E-1,3.4398835E-2,-9.452333E-2,-5.870788E-1,1.6447663E-1,8.366505E-2,4.9263567E-1,4.5025302E-4,-8.887456E-2,-2.3583379E-2,3.4007106E-2,3.364156E-2,-1.9500492E-2,1.03761114E-1,2.9252667E-2],"categories":[],"categories_nodes":[],"categories_segments":[],"categories_sizes":[],"default_left":[0,0,0,0,0,0,0,0,0,0,0,0,0,0,0,0,0,0,0,0,0,0,0,0,0,0,0,0,0],"id":13,"left_children":[1,3,5,7,-1,9,11,13,15,17,-1,19,-1,-1,-1,-1,-1,21,23,25,27,-1,-1,-1,-1,-1,-1,-1,-1],"loss_changes":[1.1249386E1,1.538372E-1,1.5805073E0,5.823107E-1,0E0,1.404502E0,1.838028E0,8.1336975E-2,2.4123507E0,1.979408E0,0E0,1.9484277E0,0E0,0E0,0E0,0E0,0E0,7.918531E-1,1.2751042E0,1.9472593E0,2.1049194E0,0E0,0E0,0E0,0E0,0E0,0E0,0E0,0E0],"parents":[2147483647,0,0,1,1,2,2,3,3,5,5,6,6,7,7,8,8,9,9,11,11,17,17,18,18,19,19,20,20],"right_children":[2,4,6,8,-1,10,12,14,16,18,-1,20,-1,-1,-1,-1,-1,22,24,26,28,-1,-1,-1,-1,-1,-1,-1,-1],"split_conditions":[1E0,4.083E3,1E0,4.31E3,-1.9642686E-2,9.538E3,7.25E3,2.4E2,5.316E3,8.5E1,-7.320662E-2,7.54E2,-6.38045E-2,-3.4446772E-2,-1.1503261E-1,3.4398835E-2,-9.452333E-2,5.9E1,1E0,2E0,1.542E3,4.5025302E-4,-8.887456E-2,-2.3583379E-2,3.4007106E-2,3.364156E-2,-1.9500492E-2,1.03761114E-1,2.9252667E-2],"split_indices":[9,6,10,5,0,5,6,8,5,7,0,6,0,0,0,0,0,7,3,10,6,0,0,0,0,0,0,0,0],"split_type":[0,0,0,0,0,0,0,0,0,0,0,0,0,0,0,0,0,0,0,0,0,0,0,0,0,0,0,0,0],"sum_hessian":[8.217517E1,1.2642755E1,6.953242E1,1.1642087E1,1.0006678E0,2.1345688E1,4.818673E1,7.3982487E0,4.243838E0,1.9413792E1,1.9318956E0,4.68E1,1.3867319E0,1.2418468E0,6.1564016E0,1.8171245E0,2.4267135E0,3.4147117E0,1.599908E1,2.5715185E1,2.1084812E1,1.485891E0,1.9288207E0,4.7735486E0,1.1225532E1,1.3376045E1,1.2339141E1,4.5387597E0,1.6546053E1],"tree_param":{"num_deleted":"0","num_feature":"11","num_nodes":"29","size_leaf_vector":"1"}},{"base_weights":[-2.5734069E-2,-8.1750673E-1,1.23891465E-1,-3.117693E-1,-8.9201343E-1,-3.4311768E-1,1.665869E-1,-6.901377E-2,2.4439596E-2,-1.0965735E-1,-5.328253E-1,1.4238104E-1,-7.093472E-1,4.1581517E-1,5.4183487E-2,3.2021E-2,-9.938819E-2,-2.1957526E-2,3.8551617E-2,-9.47253E-2,-5.4281307E-3,-5.3739395E-2,5.3839755E-1,-5.4865736E-1,1.5259925E-1,7.175835E-2,-4.283562E-2,6.999611E-2,-9.471589E-2,2.99234E-2,-2.8982887E-2],"categories":[],"categories_nodes":[],"categories_segments":[],"categories_sizes":[],"default_left":[0,0,0,0,0,0,0,0,0,0,0,0,0,0,0,0,0,0,0,0,0,0,0,0,0,0,0,0,0,0,0],"id":14,"left_children":[1,3,5,7,9,11,13,-1,-1,-1,15,17,19,21,23,-1,-1,-1,-1,-1,-1,-1,25,27,29,-1,-1,-1,-1,-1,-1],"loss_changes":[9.810508E0,2.176876E-1,1.4488717E0,8.477032E-1,2.1886158E-1,1.1986636E0,1.7878674E0,0E0,0E0,0E0,2.6432133E0,3.9154917E-1,5.2304447E-1,2.6188972E0,2.7943232E0,0E0,0E0,0E0,0E0,0E0,0E0,0E0,3.4540358E0,3.9616532E0,2.685507E0,0E0,0E0,0E0,0E0,0E0,0E0],"parents":[2147483647,0,0,1,1,2,2,3,3,4,4,5,5,6,6,10,10,11,11,12,12,13,13,14,14,22,22,23,23,24,24],"right_children":[2,4,6,8,10,12,14,-1,-1,-1,16,18,20,22,24,-1,-1,-1,-1,-1,-1,-1,26,28,30,-1,-1,-1,-1,-1,-1],"split_conditions":[1E0,2.484E3,2.045E3,1.868E3,4.31E3,1.08E2,3.358E3,-6.901377E-2,2.4439596E-2,-1.0965735E-1,5.316E3,1E0,2.934E3,3.6E2,9.7E1,3.2021E-2,-9.938819E-2,-2.1957526E-2,3.8551617E-2,-9.47253E-2,-5.4281307E-3,-5.3739395E-2,1.56E2,5.3E1,2.064E3,7.175835E-2,-4.283562E-2,6.999611E-2,-9.471589E-2,2.99234E-2,-2.8982887E-2],"split_indices":[9,5,5,6,5,7,5,0,0,0,5,1,6,8,7,0,0,0,0,0,0,0,7,7,6,0,0,0,0,0,0],"split_type":[0,0,0,0,0,0,0,0,0,0,0,0,0,0,0,0,0,0,0,0,0,0,0,0,0,0,0,0,0,0,0],"sum_hessian":[8.095555E1,1.2157594E1,6.879796E1,2.2268171E0,9.930777E0,5.1734624E0,6.36245E1,1.1818792E0,1.0449378E0,5.0193186E0,4.911458E0,2.4873226E0,2.6861396E0,1.8936947E1,4.4687553E1,1.8303944E0,3.0810635E0,1.0383809E0,1.4489417E0,1.6432896E0,1.04285E0,1.7722064E0,1.716474E1,5.6294913E0,3.905806E1,1.4698196E1,2.4665432E0,1.178968E0,4.4505234E0,2.957847E1,9.479591E0],"tree_param":{"num_deleted":"0","num_feature":"11","num_nodes":"31","size_leaf_vector":"1"}},{"base_weights":[-2.764372E-2,-7.8283083E-1,1.1142738E-1,-2.9831004E-1,-8.5555065E-1,-9.819144E-2,2.0544197E-1,-6.677116E-2,2.307156E-2,-9.902714E-2,-4.1306442E-1,-6.594217E-3,-6.854772E-2,-6.2046655E-2,2.427249E-1,2.4755063E-2,-8.3303116E-2,-5.4884607E-1,1.3683088E-1,8.194108E-2,4.2524344E-1,-1.2989936E-3,-8.107396E-2,-2.402076E-2,3.0700346E-2,6.0214497E-2,-3.2749118E-3,9.665458E-2,2.5624404E-2],"categories":[],"categories_nodes":[],"categories_segments":[],"categories_sizes":[],"default_left":[0,0,0,0,0,0,0,0,0,0,0,0,0,0,0,0,0,0,0,0,0,0,0,0,0,0,0,0,0],"id":15,"left_children":[1,3,5,7,9,11,13,-1,-1,-1,15,17,-1,-1,19,-1,-1,21,23,25,27,-1,-1,-1,-1,-1,-1,-1,-1],"loss_changes":[8.567868E0,1.9163322E-1,1.381285E0,7.775241E-1,2.164011E-1,1.1822693E0,1.6287808E0,0E0,0E0,0E0,1.3615897E0,1.6379304E0,0E0,0E0,1.3341529E0,0E0,0E0,6.073551E-1,1.1447326E0,1.5733563E0,1.7291772E0,0E0,0E0,0E0,0E0,0E0,0E0,0E0,0E0],"parents":[2147483647,0,0,1,1,2,2,3,3,4,4,5,5,6,6,10,10,11,11,14,14,17,17,18,18,19,19,20,20],"right_children":[2,4,6,8,10,12,14,-1,-1,-1,16,18,-1,-1,20,-1,-1,22,24,26,28,-1,-1,-1,-1,-1,-1,-1,-1],"split_conditions":[1E0,2.484E3,1E0,1.868E3,1.6E2,9.538E3,1.625E3,-6.677116E-2,2.307156E-2,-9.902714E-2,5.316E3,8.5E1,-6.854772E-2,-6.2046655E-2,7.54E2,2.4755063E-2,-8.3303116E-2,5.9E1,1E0,7.4E1,1.542E3,-1.2989936E-3,-8.107396E-2,-2.402076E-2,3.0700346E-2,6.0214497E-2,-3.2749118E-3,9.665458E-2,2.5624404E-2],"split_indices":[9,5,10,6,7,5,5,0,0,0,5,7,0,0,6,0,0,7,3,7,6,0,0,0,0,0,0,0,0],"split_type":[0,0,0,0,0,0,0,0,0,0,0,0,0,0,0,0,0,0,0,0,0,0,0,0,0,0,0,0,0],"sum_hessian":[7.974899E1,1.1682331E1,6.8066666E1,2.1903763E0,9.491955E0,2.1061852E1,4.700481E1,1.1354057E0,1.0549706E0,6.327495E0,3.16446E0,1.9094904E1,1.9669474E0,1.3546168E0,4.5650192E1,1.3894219E0,1.7750381E0,3.402867E0,1.5692037E1,2.5040512E1,2.0609682E1,1.4617023E0,1.9411649E0,4.75195E0,1.0940087E1,3.7556603E0,2.1284851E1,3.7807562E0,1.6828926E1],"tree_param":{"num_deleted":"0","num_feature":"11","num_nodes":"29","size_leaf_vector":"1"}},{"base_weights":[-2.805612E-2,-7.486822E-1,1.0114989E-1,-9.2200243E-1,-4.5664817E-1,2.5368014E-1,-2.6798462E-2,-2.214039E-2,-1.01863675E-1,-5.690535E-2,-8.810841E-2,5.344911E-2,9.564215E-1,-8.386814E-1,9.768506E-2,4.274327E-2,-3.9152342E-1,2.3666614E-1,-5.3243196E-1,1.0732621E-1,1.5395597E-2,-1.2158378E0,3.3795987E-3,9.265321E-2,-1.4479434E-4,-6.650764E-2,6.1502457E-3,-3.0591225E-2,4.7994416E-2,-1.1564721E-1,3.5696708E-2,-1.308167E-2,-1.7388695E-1,-5.9847534E-2,1.1408734E-2],"categories":[],"categories_nodes":[],"categories_segments":[],"categories_sizes":[],"default_left":[0,0,0,0,0,0,0,0,0,0,0,0,0,0,0,0,0,0,0,0,0,0,0,0,0,0,0,0,0,0,0,0,0,0,0],"id":16,"left_children":[1,3,5,7,9,11,13,-1,-1,15,-1,17,19,21,23,-1,25,27,29,-1,-1,31,-1,-1,33,-1,-1,-1,-1,-1,-1,-1,-1,-1,-1],"loss_changes":[7.4942937E0,1.9813347E-1,1.3425357E0,2.2775984E-1,1.0590214E0,4.3556385E0,3.935104E0,0E0,0E0,8.862279E-1,0E0,2.856013E0,4.803481E-1,1.7432632E0,2.7532067E0,0E0,4.3067846E-1,2.7954967E0,3.9462602E0,0E0,0E0,1.8374572E0,0E0,0E0,2.2122345E0,0E0,0E0,0E0,0E0,0E0,0E0,0E0,0E0,0E0,0E0],"parents":[2147483647,0,0,1,1,2,2,3,3,4,4,5,5,6,6,9,9,11,11,12,12,13,13,14,14,16,16,17,17,18,18,21,21,24,24],"right_children":[2,4,6,8,10,12,14,-1,-1,16,-1,18,20,22,24,-1,26,28,30,-1,-1,32,-1,-1,34,-1,-1,-1,-1,-1,-1,-1,-1,-1,-1],"split_conditions":[1E0,1.29E2,1.27E2,3.6E2,1.67E2,1.15E2,1.3E2,-2.214039E-2,-1.01863675E-1,1E0,-8.810841E-2,4.167E3,2.375E3,4.945E3,1.33E2,4.274327E-2,3.975E3,2.439E3,4.75E3,1.0732621E-1,1.5395597E-2,2.5E3,3.3795987E-3,9.265321E-2,1E0,-6.650764E-2,6.1502457E-3,-3.0591225E-2,4.7994416E-2,-1.1564721E-1,3.5696708E-2,-1.308167E-2,-1.7388695E-1,-5.9847534E-2,1.1408734E-2],"split_indices":[9,7,7,8,7,7,7,0,0,1,0,5,6,5,7,0,5,5,5,0,0,5,0,0,3,0,0,0,0,0,0,0,0,0,0],"split_type":[0,0,0,0,0,0,0,0,0,0,0,0,0,0,0,0,0,0,0,0,0,0,0,0,0,0,0,0,0,0,0,0,0,0,0],"sum_hessian":[7.867594E1,1.1232722E1,6.744322E1,5.695379E0,5.537344E0,3.0317883E1,3.712534E1,1.0892767E0,4.6061025E0,3.4356492E0,2.1016946E0,2.4432442E1,5.8854403E0,4.172827E0,3.295251E1,1.2904423E0,2.1452067E0,1.9066124E1,5.3663173E0,4.842855E0,1.0425855E0,2.6386423E0,1.5341843E0,2.5845442E0,3.0367968E1,1.0457002E0,1.0995065E0,5.822609E0,1.3243516E1,2.9771426E0,2.3891745E0,1.2648479E0,1.3737944E0,4.1887603E0,2.6179207E1],"tree_param":{"num_deleted":"0","num_feature":"11","num_nodes":"35","size_leaf_vector":"1"}},{"base_weights":[-2.9052103E-2,-7.1891475E-1,9.134364E-2,-2.4594642E-1,-7.942229E-1,-7.92776E-2,2.0426771E-1,-6.1851423E-2,2.452296E-2,-1.00868285E-1,-4.4088522E-1,2.6519667E-2,-7.5562346E-1,-1.555119E-1,3.0229637E-1,4.9393624E-2,-8.015637E-2,-2.8428763E-1,3.272035E-1,-9.398352E-2,-1.569507E-2,2.3036481E-1,-1.0632706E-1,3.6608118E-1,-6.039248E-2,-3.144305E-3,-1.0519307E-1,7.185537E-2,3.8774224E-4,-1.373252E-2,5.027773E-2,2.57646E-2,8.36019E-2],"categories":[],"categories_nodes":[],"categories_segments":[],"categories_sizes":[],"default_left":[0,0,0,0,0,0,0,0,0,0,0,0,0,0,0,0,0,0,0,0,0,0,0,0,0,0,0,0,0,0,0,0,0],"id":17,"left_children":[1,3,5,7,9,11,13,-1,-1,-1,15,17,19,21,23,-1,-1,25,27,-1,-1,29,-1,31,-1,-1,-1,-1,-1,-1,-1,-1,-1],"loss_changes":[6.606161E0,2.2545147E-1,1.3250893E0,7.137062E-1,2.9354286E-1,2.0075316E0,1.4986074E0,0E0,0E0,0E0,2.2356148E0,2.4279432E0,2.7057195E-1,3.5632942E0,2.110372E0,0E0,0E0,2.4553204E0,1.662903E0,0E0,0E0,8.172126E-1,0E0,1.3723555E0,0E0,0E0,0E0,0E0,0E0,0E0,0E0,0E0,0E0],"parents":[2147483647,0,0,1,1,2,2,3,3,4,4,5,5,6,6,10,10,11,11,12,12,13,13,14,14,17,17,18,18,21,21,23,23],"right_children":[2,4,6,8,10,12,14,-1,-1,-1,16,18,20,22,24,-1,-1,26,28,-1,-1,30,-1,32,-1,-1,-1,-1,-1,-1,-1,-1,-1],"split_conditions":[1E0,2.484E3,1E0,1.868E3,4.31E3,8.666E3,1E0,-6.1851423E-2,2.452296E-2,-1.00868285E-1,4.945E3,3.617E3,1.25E4,4.583E3,6.666E3,4.9393624E-2,-8.015637E-2,3.34E3,4.554E3,-9.398352E-2,-1.569507E-2,1E0,-1.0632706E-1,3.013E3,-6.039248E-2,-3.144305E-3,-1.0519307E-1,7.185537E-2,3.8774224E-4,-1.373252E-2,5.027773E-2,2.57646E-2,8.36019E-2],"split_indices":[9,5,1,6,5,5,3,0,0,0,5,5,5,5,6,0,0,5,5,0,0,10,0,6,0,0,0,0,0,0,0,0,0],"split_type":[0,0,0,0,0,0,0,0,0,0,0,0,0,0,0,0,0,0,0,0,0,0,0,0,0,0,0,0,0,0,0,0,0],"sum_hessian":[7.77475E1,1.0813771E1,6.693372E1,2.0712535E0,8.742517E0,2.6775526E1,4.01582E1,1.0304118E0,1.0408418E0,4.2862377E0,4.4562798E0,2.3984539E1,2.7909865E0,8.473353E0,3.1684845E1,1.137805E0,3.3184748E0,1.1820546E1,1.2163993E1,1.6984947E0,1.092492E0,6.4694843E0,2.003869E0,3.0158182E1,1.5266628E0,9.674832E0,2.1457143E0,4.950085E0,7.2139077E0,2.9642994E0,3.505185E0,2.5762014E1,4.396167E0],"tree_param":{"num_deleted":"0","num_feature":"11","num_nodes":"33","size_leaf_vector":"1"}},{"base_weights":[-3.065006E-2,-6.876037E-1,8.105401E-2,-8.637592E-1,-4.0501258E-1,-2.3596092E-1,1.373204E-1,-1.8021006E-2,-9.670477E-2,-2.371596E-2,-8.306468E-2,-1.026045E0,1.1316093E-1,4.8298466E-1,2.3548653E-2,3.9772794E-2,-3.3484157E-2,-2.8540319E-2,-1.2226444E-1,7.112025E-1,-9.532481E-1,7.0238423E-1,-3.872407E-1,-6.425333E-1,9.8275E-2,-1.7795438E-2,9.577798E-2,-5.8393464E-3,-1.3103935E-1,-2.3263117E-2,8.133178E-2,-1.130203E-1,6.8728775E-2,-9.6900724E-2,4.5555662E-3,7.394633E-2,-5.605774E-4],"categories":[],"categories_nodes":[],"categories_segments":[],"categories_sizes":[],"default_left":[0,0,0,0,0,0,0,0,0,0,0,0,0,0,0,0,0,0,0,0,0,0,0,0,0,0,0,0,0,0,0,0,0,0,0,0,0],"id":18,"left_children":[1,3,5,7,9,11,13,-1,-1,15,-1,17,19,21,23,-1,-1,-1,-1,25,27,29,31,33,35,-1,-1,-1,-1,-1,-1,-1,-1,-1,-1,-1,-1],"loss_changes":[5.7551627E0,2.1726322E-1,1.2323761E0,2.588563E-1,9.958224E-1,3.014669E0,2.2603428E0,0E0,0E0,7.009299E-1,0E0,1.3443565E-1,5.900275E0,2.9933333E0,2.278667E0,0E0,0E0,0E0,0E0,1.4462574E0,1.0003412E0,1.4067998E0,3.5825686E0,1.0825833E0,2.7276528E0,0E0,0E0,0E0,0E0,0E0,0E0,0E0,0E0,0E0,0E0,0E0,0E0],"parents":[2147483647,0,0,1,1,2,2,3,3,4,4,5,5,6,6,9,9,11,11,12,12,13,13,14,14,19,19,20,20,21,21,22,22,23,23,24,24],"right_children":[2,4,6,8,10,12,14,-1,-1,16,-1,18,20,22,24,-1,-1,-1,-1,26,28,30,32,34,36,-1,-1,-1,-1,-1,-1,-1,-1,-1,-1,-1,-1],"split_conditions":[1E0,1.29E2,2.439E3,3.6E2,1.67E2,1.612E1,3.358E3,-1.8021006E-2,-9.670477E-2,1E0,-8.306468E-2,1E0,2.541E3,1.56E2,3.617E3,3.9772794E-2,-3.3484157E-2,-2.8540319E-2,-1.2226444E-1,1.809E3,1.782E3,3.6E2,2.669E3,1E0,3.6E2,-1.7795438E-2,9.577798E-2,-5.8393464E-3,-1.3103935E-1,-2.3263117E-2,8.133178E-2,-1.130203E-1,6.8728775E-2,-9.6900724E-2,4.5555662E-3,7.394633E-2,-5.605774E-4],"split_indices":[9,7,5,8,7,6,5,0,0,1,0,0,6,7,5,0,0,0,0,5,5,8,6,1,8,0,0,0,0,0,0,0,0,0,0,0,0],"split_type":[0,0,0,0,0,0,0,0,0,0,0,0,0,0,0,0,0,0,0,0,0,0,0,0,0,0,0,0,0,0,0,0,0,0,0,0,0],"sum_hessian":[7.666541E1,1.0392062E1,6.6273346E1,5.1347218E0,5.2573404E0,9.50829E0,5.6765057E1,1.0343384E0,4.1003838E0,3.3299682E0,1.927372E0,2.3197112E0,7.188579E0,1.3253306E1,4.351175E1,1.2960355E0,2.0339327E0,1.0008698E0,1.3188416E0,4.8191113E0,2.3694682E0,1.0738746E1,2.5145612E0,3.62262E0,3.988913E1,1.1066905E0,3.7124205E0,1.0078143E0,1.3616538E0,1.0226024E0,9.716144E0,1.4560145E0,1.0585465E0,2.1800194E0,1.442601E0,4.7084646E0,3.5180668E1],"tree_param":{"num_deleted":"0","num_feature":"11","num_nodes":"37","size_leaf_vector":"1"}},{"base_weights":[-3.2840524E-2,-6.590227E-1,7.132187E-2,-1.9956935E-2,-7.3660576E-1,-2.3254514E-1,1.2549542E-1,-9.611655E-2,-3.8480398E-1,-9.5426536E-1,9.8337375E-2,4.533049E-1,2.1017289E-2,3.3297475E-2,-8.574783E-2,-3.2912496E-2,-1.20601535E-1,6.813225E-1,-8.757083E-1,6.680922E-1,-3.584689E-1,-5.211902E-1,1.1145106E-1,9.421103E-2,-1.8568274E-2,-5.543184E-3,-1.1918404E-1,-2.1988979E-2,7.794756E-2,-1.0402279E-1,6.6458724E-2,6.304142E-2,-8.5237004E-2,2.589494E-2,-3.2403827E-2],"categories":[],"categories_nodes":[],"categories_segments":[],"categories_sizes":[],"default_left":[0,0,0,0,0,0,0,0,0,0,0,0,0,0,0,0,0,0,0,0,0,0,0,0,0,0,0,0,0,0,0,0,0,0,0],"id":19,"left_children":[1,3,5,-1,7,9,11,-1,13,15,17,19,21,-1,-1,-1,-1,23,25,27,29,31,33,-1,-1,-1,-1,-1,-1,-1,-1,-1,-1,-1,-1],"loss_changes":[5.0395646E0,2.45615E-1,1.1243654E0,0E0,3.4522295E-1,2.581425E0,1.9465264E0,0E0,2.0478191E0,1.3311028E-1,5.167242E0,2.6377592E0,2.2331345E0,0E0,0E0,0E0,0E0,1.4405854E0,8.2889915E-1,1.2817292E0,3.1525261E0,3.022849E0,2.578825E0,0E0,0E0,0E0,0E0,0E0,0E0,0E0,0E0,0E0,0E0,0E0,0E0],"parents":[2147483647,0,0,1,1,2,2,4,4,5,5,6,6,8,8,9,9,10,10,11,11,12,12,17,17,18,18,19,19,20,20,21,21,22,22],"right_children":[2,4,6,-1,8,10,12,-1,14,16,18,20,22,-1,-1,-1,-1,24,26,28,30,32,34,-1,-1,-1,-1,-1,-1,-1,-1,-1,-1,-1,-1],"split_conditions":[1E0,2.484E3,2.439E3,-1.9956935E-2,4.31E3,1.612E1,3.358E3,-9.611655E-2,5.316E3,1E0,2.541E3,1.56E2,9.7E1,3.3297475E-2,-8.574783E-2,-3.2912496E-2,-1.20601535E-1,1.31E2,1.782E3,3.6E2,2.669E3,5.3E1,2.064E3,9.421103E-2,-1.8568274E-2,-5.543184E-3,-1.1918404E-1,-2.1988979E-2,7.794756E-2,-1.0402279E-1,6.6458724E-2,6.304142E-2,-8.5237004E-2,2.589494E-2,-3.2403827E-2],"split_indices":[9,5,5,0,5,6,5,0,5,3,6,7,7,0,0,0,0,7,5,8,6,7,6,0,0,0,0,0,0,0,0,0,0,0,0],"split_type":[0,0,0,0,0,0,0,0,0,0,0,0,0,0,0,0,0,0,0,0,0,0,0,0,0,0,0,0,0,0,0,0,0,0,0],"sum_hessian":[7.554412E1,1.0014445E1,6.552968E1,1.9628161E0,8.05163E0,9.4168215E0,5.6112854E1,3.8573253E0,4.1943045E0,2.3679197E0,7.0489016E0,1.2754794E1,4.335806E1,1.7827159E0,2.4115884E0,1.3422416E0,1.025678E0,4.5976453E0,2.4512563E0,1.0226073E1,2.5287209E0,5.516991E0,3.784107E1,3.4679036E0,1.1297415E0,1.0088668E0,1.4423895E0,1.0311625E0,9.194911E0,1.5074078E0,1.0213131E0,1.030414E0,4.486577E0,2.8569937E1,9.271131E0],"tree_param":{"num_deleted":"0","num_feature":"11","num_nodes":"35","size_leaf_vector":"1"}},{"base_weights":[-3.4570616E-2,-6.3202125E-1,6.244004E-2,-8.119753E-1,-3.563259E-1,8.577994E-2,-5.9918284E-2,-9.1399305E-2,-2.061276E-2,3.2267743E-3,-7.801827E-2,-1.2245072E-1,1.8463871E-1,3.802017E-2,-2.9214052E-2,-2.6640716E-1,2.243278E-1,1.255072E-1,9.068226E-2,1.217884E-2,-7.8887045E-2,-6.4423144E-2,6.88875E-2,-6.010247E-3,3.5132106E-2],"categories":[],"categories_nodes":[],"categories_segments":[],"categories_sizes":[],"default_left":[0,0,0,0,0,0,0,0,0,0,0,0,0,0,0,0,0,0,0,0,0,0,0,0,0],"id":20,"left_children":[1,3,5,7,9,11,-1,-1,-1,13,-1,15,17,-1,-1,19,21,23,-1,-1,-1,-1,-1,-1,-1],"loss_changes":[4.413099E0,2.3811102E-1,1.0679523E0,1.608417E-1,9.139678E-1,1.3495706E0,0E0,0E0,0E0,5.822534E-1,0E0,1.1257118E0,1.7697885E0,0E0,0E0,3.2490935E0,3.1901946E0,1.7785754E0,0E0,0E0,0E0,0E0,0E0,0E0,0E0],"parents":[2147483647,0,0,1,1,2,2,3,3,4,4,5,5,9,9,11,11,12,12,15,15,16,16,17,17],"right_children":[2,4,6,8,10,12,-1,-1,-1,14,-1,16,18,-1,-1,20,22,24,-1,-1,-1,-1,-1,-1,-1],"split_conditions":[1E0,1.29E2,7.25E3,1.929E3,1.67E2,1E0,-5.9918284E-2,-9.1399305E-2,-2.061276E-2,1E0,-7.801827E-2,2E0,2.79E2,3.802017E-2,-2.9214052E-2,4.554E3,1E0,7.54E2,9.068226E-2,1.217884E-2,-7.8887045E-2,-6.4423144E-2,6.88875E-2,-6.010247E-3,3.5132106E-2],"split_indices":[9,7,6,6,7,10,0,0,0,1,0,2,7,0,0,5,3,6,0,0,0,0,0,0,0],"split_type":[0,0,0,0,0,0,0,0,0,0,0,0,0,0,0,0,0,0,0,0,0,0,0,0,0],"sum_hessian":[7.446075E1,9.631171E0,6.4829575E1,4.6504817E0,4.9806895E0,6.346122E1,1.3683565E0,3.5449367E0,1.105545E0,3.2316809E0,1.7490089E0,2.0352722E1,4.3108498E1,1.2935354E0,1.9381454E0,1.4546056E1,5.806666E0,4.0930916E1,2.1775832E0,8.785348E0,5.7607074E0,1.888661E0,3.918005E0,2.2868113E1,1.8062803E1],"tree_param":{"num_deleted":"0","num_feature":"11","num_nodes":"25","size_leaf_vector":"1"}},{"base_weights":[-3.3749364E-2,-6.063603E-1,5.6872956E-2,-1.5424996E-2,-6.8833375E-1,-2.4495834E-1,1.10804945E-1,-8.49709E-1,-2.4309005E-1,-8.841287E-1,6.696282E-2,4.1708198E-1,1.6791945E-2,-9.490194E-2,-2.6808375E-2,2.9733846E-2,-6.777947E-2,-2.2476193E-2,-1.2204844E-1,6.374576E-1,-8.198778E-2,-1.8606078E-2,8.5240954E-1,-5.886998E-1,8.531579E-2,-2.1117846E-2,9.01397E-2,5.774753E-2,-7.150182E-2,9.426512E-2,1.8571092E-2,-8.887835E-2,5.1459926E-3,6.903811E-2,-8.741515E-4],"categories":[],"categories_nodes":[],"categories_segments":[],"categories_sizes":[],"default_left":[0,0,0,0,0,0,0,0,0,0,0,0,0,0,0,0,0,0,0,0,0,0,0,0,0,0,0,0,0,0,0,0,0,0,0],"id":21,"left_children":[1,3,5,-1,7,9,11,13,15,17,19,21,23,-1,-1,-1,-1,-1,-1,25,-1,27,29,31,33,-1,-1,-1,-1,-1,-1,-1,-1,-1,-1],"loss_changes":[3.911943E0,2.753911E-1,1.0921867E0,0E0,3.9890742E-1,2.0987408E0,1.6111376E0,7.968664E-2,1.0572342E0,4.8537493E-1,4.4712114E0,2.5112386E0,1.8774927E0,0E0,0E0,0E0,0E0,0E0,0E0,1.380156E0,0E0,3.5488045E0,2.2216558E-1,9.3016386E-1,2.3073108E0,0E0,0E0,0E0,0E0,0E0,0E0,0E0,0E0,0E0,0E0],"parents":[2147483647,0,0,1,1,2,2,4,4,5,5,6,6,7,7,8,8,9,9,10,10,11,11,12,12,19,19,21,21,22,22,23,23,24,24],"right_children":[2,4,6,-1,8,10,12,14,16,18,20,22,24,-1,-1,-1,-1,-1,-1,26,-1,28,30,32,34,-1,-1,-1,-1,-1,-1,-1,-1,-1,-1],"split_conditions":[1E0,2.484E3,2.439E3,-1.5424996E-2,1.6E2,1.612E1,3.358E3,4.6E3,5.316E3,2.214E3,2.541E3,1.733E3,3.617E3,-9.490194E-2,-2.6808375E-2,2.9733846E-2,-6.777947E-2,-2.2476193E-2,-1.2204844E-1,1.809E3,-8.198778E-2,9.6E1,1.62E2,1E0,3.6E2,-2.1117846E-2,9.01397E-2,5.774753E-2,-7.150182E-2,9.426512E-2,1.8571092E-2,-8.887835E-2,5.1459926E-3,6.903811E-2,-8.741515E-4],"split_indices":[9,5,5,0,7,6,5,5,5,5,6,6,5,0,0,0,0,0,0,5,0,7,7,1,8,0,0,0,0,0,0,0,0,0,0],"split_type":[0,0,0,0,0,0,0,0,0,0,0,0,0,0,0,0,0,0,0,0,0,0,0,0,0,0,0,0,0,0,0,0,0,0,0],"sum_hessian":[7.372263E1,9.29564E0,6.4426994E1,1.86903E0,7.42661E0,9.229872E0,5.519712E1,4.784199E0,2.642411E0,2.425408E0,6.8044634E0,1.215663E1,4.3040493E1,3.5469089E0,1.2372904E0,1.3188294E0,1.3235815E0,1.3828326E0,1.0425752E0,4.3118815E0,2.4925818E0,6.5542307E0,5.602399E0,3.603958E0,3.9436535E1,1.0703421E0,3.2415395E0,3.6235251E0,2.9307055E0,4.569924E0,1.0324752E0,2.1893108E0,1.4146471E0,4.4526815E0,3.4983852E1],"tree_param":{"num_deleted":"0","num_feature":"11","num_nodes":"35","size_leaf_vector":"1"}},{"base_weights":[-3.3709146E-2,-5.814422E-1,5.116697E-2,-1.4504715E-2,-6.630352E-1,-2.2839762E-1,1.04368664E-1,-8.216257E-1,-2.3325256E-1,1.3250938E-1,-1.0102304E-1,4.09641E-1,-5.803224E-2,-9.218689E-2,-2.5559342E-2,2.7954761E-2,-6.57191E-2,-4.5226976E-1,5.0765693E-1,6.338263E-1,-4.9778443E-2,-7.9499424E-1,6.0091376E-2,3.0506322E-2,-8.67318E-2,6.895352E-2,7.7277618E-3,3.1712577E-3,9.068987E-2,-4.5652807E-2,5.933478E-2,-1.1163163E-1,2.948037E-7,8.781312E-2,-3.1269842E-3],"categories":[],"categories_nodes":[],"categories_segments":[],"categories_sizes":[],"default_left":[0,0,0,0,0,0,0,0,0,0,0,0,0,0,0,0,0,0,0,0,0,0,0,0,0,0,0,0,0,0,0,0,0,0,0],"id":22,"left_children":[1,3,5,-1,7,9,11,13,15,17,-1,19,21,-1,-1,-1,-1,23,25,27,29,31,33,-1,-1,-1,-1,-1,-1,-1,-1,-1,-1,-1,-1],"loss_changes":[3.4621878E0,2.5942945E-1,9.883081E-1,0E0,3.6274457E-1,3.1477063E0,2.758647E0,7.900071E-2,9.639076E-1,2.0266786E0,0E0,2.0173175E0,3.2586672E0,0E0,0E0,0E0,0E0,1.4371097E0,3.7421906E-1,2.1136665E0,2.167429E0,1.3195548E0,2.4727778E0,0E0,0E0,0E0,0E0,0E0,0E0,0E0,0E0,0E0,0E0,0E0,0E0],"parents":[2147483647,0,0,1,1,2,2,4,4,5,5,6,6,7,7,8,8,9,9,11,11,12,12,17,17,18,18,19,19,20,20,21,21,22,22],"right_children":[2,4,6,-1,8,10,12,14,16,18,-1,20,22,-1,-1,-1,-1,24,26,28,30,32,34,-1,-1,-1,-1,-1,-1,-1,-1,-1,-1,-1,-1],"split_conditions":[1E0,2.484E3,8.4E1,-1.4504715E-2,1.6E2,7.4E1,1.27E2,4.6E3,5.316E3,2.383E3,-1.0102304E-1,4.2E3,1.3E2,-9.218689E-2,-2.5559342E-2,2.7954761E-2,-6.57191E-2,1E0,1E0,2.609E3,1.13E2,4.945E3,1.33E2,3.0506322E-2,-8.67318E-2,6.895352E-2,7.7277618E-3,3.1712577E-3,9.068987E-2,-4.5652807E-2,5.933478E-2,-1.1163163E-1,2.948037E-7,8.781312E-2,-3.1269842E-3],"split_indices":[9,5,7,0,7,7,7,5,5,5,0,5,7,0,0,0,0,3,1,5,7,5,7,0,0,0,0,0,0,0,0,0,0,0,0],"split_type":[0,0,0,0,0,0,0,0,0,0,0,0,0,0,0,0,0,0,0,0,0,0,0,0,0,0,0,0,0,0,0,0,0,0,0],"sum_hessian":[7.2832596E1,8.986879E0,6.384572E1,1.8531454E0,7.133734E0,9.680982E0,5.4164738E1,4.544926E0,2.5888083E0,7.191692E0,2.48929E0,1.8280205E1,3.5884533E1,3.3270595E0,1.2178665E0,1.3257554E0,1.2630529E0,2.730233E0,4.4614587E0,1.2030159E1,6.2500453E0,4.1655946E0,3.1718937E1,1.0603746E0,1.6698582E0,2.712851E0,1.7486078E0,4.1018577E0,7.9283013E0,4.006346E0,2.243699E0,2.678729E0,1.4868656E0,2.32143E0,2.9397507E1],"tree_param":{"num_deleted":"0","num_feature":"11","num_nodes":"35","size_leaf_vector":"1"}},{"base_weights":[-3.250897E-2,-5.577884E-1,4.704663E-2,-7.4309915E-1,-2.9349497E-1,6.92573E-2,-5.987316E-2,-8.587947E-2,-1.3950671E-2,1.324404E-1,-6.512468E-2,-4.062431E-1,1.13654256E-1,2.2470972E-2,-1.070545E-4,1.5890712E-1,-8.5065454E-2,-2.4110784E-1,1.7372395E-1,-1.4772414E-2,3.5990283E-2,2.0320063E-2,-1.0264196E-1,4.597254E-2,2.8782943E-3],"categories":[],"categories_nodes":[],"categories_segments":[],"categories_sizes":[],"default_left":[0,0,0,0,0,0,0,0,0,0,0,0,0,0,0,0,0,0,0,0,0,0,0,0,0],"id":23,"left_children":[1,3,5,7,9,11,-1,-1,-1,13,-1,15,17,-1,-1,19,-1,21,23,-1,-1,-1,-1,-1,-1],"loss_changes":[3.0818608E0,2.5675488E-1,9.655223E-1,2.3260975E-1,9.470296E-1,1.3799286E0,0E0,0E0,0E0,4.2244863E-2,0E0,1.5451376E0,1.2899368E0,0E0,0E0,2.5740194E-1,0E0,3.3137228E0,2.0870376E0,0E0,0E0,0E0,0E0,0E0,0E0],"parents":[2147483647,0,0,1,1,2,2,3,3,4,4,5,5,9,9,11,11,12,12,15,15,17,17,18,18],"right_children":[2,4,6,8,10,12,-1,-1,-1,14,-1,16,18,-1,-1,20,-1,22,24,-1,-1,-1,-1,-1,-1],"split_conditions":[1E0,1.29E2,4.8E2,1.929E3,1.62E2,2.045E3,-5.987316E-2,-8.587947E-2,-1.3950671E-2,1E0,-6.512468E-2,1.08E2,8.4E1,2.2470972E-2,-1.070545E-4,1E0,-8.5065454E-2,7.4E1,1.27E2,-1.4772414E-2,3.5990283E-2,2.0320063E-2,-1.0264196E-1,4.597254E-2,2.8782943E-3],"split_indices":[9,7,8,6,7,5,0,0,0,1,0,7,7,0,0,1,0,7,7,0,0,0,0,0,0],"split_type":[0,0,0,0,0,0,0,0,0,0,0,0,0,0,0,0,0,0,0,0,0,0,0,0,0],"sum_hessian":[7.212031E1,8.695498E0,6.3424812E1,4.0465755E0,4.648923E0,6.2179005E1,1.245809E0,3.0408962E0,1.0056794E0,2.409727E0,2.2391958E0,4.613819E0,5.7565186E1,1.0210202E0,1.3887068E0,2.3138146E0,2.3000047E0,7.8993106E0,4.9665874E1,1.021101E0,1.2927135E0,5.5183973E0,2.3809133E0,1.5973913E1,3.369196E1],"tree_param":{"num_deleted":"0","num_feature":"11","num_nodes":"25","size_leaf_vector":"1"}},{"base_weights":[-3.3621717E-2,-5.3255886E-1,4.0416904E-2,-1.05886785E-2,-6.1758274E-1,-1.2966456E-1,1.20482795E-1,-8.64188E-2,-2.7591032E-1,-2.6829073E-1,2.0991006E-1,2.8472638E-1,-5.5584222E-2,3.5415027E-2,-7.666661E-2,7.91007E-2,-7.055367E-1,-5.7227444E-2,6.4481765E-1,3.6077243E-1,-6.636857E-2,-2.0510237E-1,7.2803155E-2,-6.797888E-2,3.0713601E-2,-1.0561941E-1,-3.2369867E-2,9.114154E-2,4.3736375E-3,1.8742174E-2,8.210084E-2,-5.044293E-2,1.24284495E-2],"categories":[],"categories_nodes":[],"categories_segments":[],"categories_sizes":[],"default_left":[0,0,0,0,0,0,0,0,0,0,0,0,0,0,0,0,0,0,0,0,0,0,0,0,0,0,0,0,0,0,0,0,0],"id":24,"left_children":[1,3,5,-1,7,9,11,-1,13,15,17,19,21,-1,-1,23,25,-1,27,29,-1,31,-1,-1,-1,-1,-1,-1,-1,-1,-1,-1,-1],"loss_changes":[2.6965027E0,2.76613E-1,8.869573E-1,0E0,4.0648627E-1,1.0430692E0,1.2888954E0,0E0,1.7178628E0,2.3834682E0,2.6270015E0,1.8939333E0,2.7367537E0,0E0,0E0,1.8421829E0,5.8002996E-1,0E0,7.190685E-1,1.5921504E0,0E0,1.9680668E0,0E0,0E0,0E0,0E0,0E0,0E0,0E0,0E0,0E0,0E0,0E0],"parents":[2147483647,0,0,1,1,2,2,4,4,5,5,6,6,8,8,9,9,10,10,11,11,12,12,15,15,16,16,18,18,19,19,21,21],"right_children":[2,4,6,-1,8,10,12,-1,14,16,18,20,22,-1,-1,24,26,-1,28,30,-1,32,-1,-1,-1,-1,-1,-1,-1,-1,-1,-1,-1],"split_conditions":[1E0,2.484E3,1E0,-1.05886785E-2,4.31E3,2E0,2E0,-8.64188E-2,5.316E3,4.554E3,1E0,5.701E3,9.167E3,3.5415027E-2,-7.666661E-2,6.6E1,1.34E2,-5.7227444E-2,1.625E3,2.1E3,-6.636857E-2,1.612E1,7.2803155E-2,-6.797888E-2,3.0713601E-2,-1.0561941E-1,-3.2369867E-2,9.114154E-2,4.3736375E-3,1.8742174E-2,8.210084E-2,-5.044293E-2,1.24284495E-2],"split_indices":[9,5,10,0,5,2,10,0,5,5,3,6,5,0,0,7,7,0,6,6,0,6,0,0,0,0,0,0,0,0,0,0,0],"split_type":[0,0,0,0,0,0,0,0,0,0,0,0,0,0,0,0,0,0,0,0,0,0,0,0,0,0,0,0,0,0,0,0,0],"sum_hessian":[7.1412926E1,8.427572E0,6.298536E1,1.7734268E0,6.6541452E0,1.9961754E1,4.30236E1,2.9765232E0,3.677622E0,1.4324085E1,5.637669E0,2.1939894E1,2.108371E1,1.7321478E0,1.9454743E0,8.438667E0,5.885418E0,1.9016622E0,3.7360067E0,2.0884893E1,1.0549994E0,1.8325388E1,2.7583225E0,1.49207E0,6.9465976E0,2.1473453E0,3.7380726E0,2.2304442E0,1.5055625E0,1.619295E1,4.6919436E0,9.322366E0,9.003022E0],"tree_param":{"num_deleted":"0","num_feature":"11","num_nodes":"33","size_leaf_vector":"1"}},{"base_weights":[-3.314796E-2,-5.1113284E-1,3.608423E-2,-2.7633247E-1,-7.3173165E-2,5.7435915E-2,-5.6428798E-2,2.7049616E-2,-4.499941E-1,-2.7216712E-1,1.16054304E-1,-8.09189E-2,8.023662E-3,2.9150954E-2,-8.5672486E-1,7.9824574E-2,7.212661E-2,-7.649305E-2,5.918939E-2,-1.0807407E-1,-2.7671838E-2,-3.7662436E-3,3.4322873E-2],"categories":[],"categories_nodes":[],"categories_segments":[],"categories_sizes":[],"default_left":[0,0,0,0,0,0,0,0,0,0,0,0,0,0,0,0,0,0,0,0,0,0,0],"id":25,"left_children":[1,3,5,7,-1,9,-1,-1,11,13,15,-1,-1,17,19,-1,21,-1,-1,-1,-1,-1,-1],"loss_changes":[2.3906374E0,2.7097678E-1,8.470503E-1,6.9453907E-1,0E0,1.2347847E0,0E0,0E0,1.0083556E0,1.7338532E0,1.5478475E0,0E0,0E0,3.7457225E0,1.339829E-1,0E0,1.5437276E0,0E0,0E0,0E0,0E0,0E0,0E0],"parents":[2147483647,0,0,1,1,2,2,3,3,5,5,8,8,9,9,10,10,13,13,14,14,16,16],"right_children":[2,4,6,8,-1,10,-1,-1,12,14,16,-1,-1,18,20,-1,22,-1,-1,-1,-1,-1,-1],"split_conditions":[1E0,2E0,4.8E2,2.484E3,-7.3173165E-2,2.439E3,-5.6428798E-2,2.7049616E-2,4.6E3,2.541E3,2.6E3,-8.09189E-2,8.023662E-3,1.612E1,1.15E2,7.9824574E-2,2E0,-7.649305E-2,5.918939E-2,-1.0807407E-1,-2.7671838E-2,-3.7662436E-3,3.4322873E-2],"split_indices":[9,10,8,5,0,5,0,0,5,6,5,0,0,6,7,0,2,0,0,0,0,0,0],"split_type":[0,0,0,0,0,0,0,0,0,0,0,0,0,0,0,0,0,0,0,0,0,0,0],"sum_hessian":[7.068493E1,8.135295E0,6.2549637E1,5.031997E0,3.1032972E0,6.1274788E1,1.2748483E0,1.0784744E0,3.9535227E0,8.701942E0,5.2572845E1,2.0432522E0,1.9102705E0,6.3690586E0,2.332884E0,2.1416395E0,5.0431206E1,2.492552E0,3.8765066E0,1.0601122E0,1.272772E0,3.6507664E1,1.3923542E1],"tree_param":{"num_deleted":"0","num_feature":"11","num_nodes":"23","size_leaf_vector":"1"}},{"base_weights":[-3.3029653E-2,-4.861218E-1,3.135129E-2,-6.8423665E-1,-2.2620066E-1,1.6010989E-1,-6.773201E-2,-1.366192E-2,-8.117023E-2,1.8080944E-1,-5.921587E-2,-1.4274637E-2,8.4011626E-1,-7.18516E-1,4.0436696E-2,4.4843396E-3,2.4205595E-2,1.523548E-1,-4.8111793E-1,9.691514E-2,1.2748554E-2,-1.010875E0,9.675994E-4,8.490307E-2,-4.6590365E-2,-1.8090745E-2,4.0107872E-2,-1.0284704E-1,3.32882E-2,-4.800857E-3,-1.468466E-1,-5.0731044E-2,4.943365E-3],"categories":[],"categories_nodes":[],"categories_segments":[],"categories_sizes":[],"default_left":[0,0,0,0,0,0,0,0,0,0,0,0,0,0,0,0,0,0,0,0,0,0,0,0,0,0,0,0,0,0,0,0,0],"id":26,"left_children":[1,3,5,7,9,11,13,-1,-1,15,-1,17,19,21,23,-1,-1,25,27,-1,-1,29,-1,-1,31,-1,-1,-1,-1,-1,-1,-1,-1],"loss_changes":[2.0900435E0,3.0402613E-1,8.173561E-1,2.0755553E-1,9.0358484E-1,3.3072746E0,2.5933895E0,0E0,0E0,1.6608268E-2,0E0,1.8702757E0,3.995328E-1,1.1264374E0,2.3042552E0,0E0,0E0,1.5466397E0,3.1568036E0,0E0,0E0,1.5826457E0,0E0,0E0,1.3524485E0,0E0,0E0,0E0,0E0,0E0,0E0,0E0,0E0],"parents":[2147483647,0,0,1,1,2,2,3,3,4,4,5,5,6,6,9,9,11,11,12,12,13,13,14,14,17,17,18,18,21,21,24,24],"right_children":[2,4,6,8,10,12,14,-1,-1,16,-1,18,20,22,24,-1,-1,26,28,-1,-1,30,-1,-1,32,-1,-1,-1,-1,-1,-1,-1,-1],"split_conditions":[1E0,1.29E2,1.27E2,9.3E1,1.62E2,1.15E2,1.3E2,-1.366192E-2,-8.117023E-2,1.717E3,-5.921587E-2,4.167E3,2.333E3,4.945E3,1.33E2,4.4843396E-3,2.4205595E-2,2.609E3,4.75E3,9.691514E-2,1.2748554E-2,2.5E3,9.675994E-4,8.490307E-2,1E0,-1.8090745E-2,4.0107872E-2,-1.0284704E-1,3.32882E-2,-4.800857E-3,-1.468466E-1,-5.0731044E-2,4.943365E-3],"split_indices":[9,7,7,7,7,7,7,0,0,6,0,5,6,5,7,0,0,5,5,0,0,5,0,0,3,0,0,0,0,0,0,0,0],"split_type":[0,0,0,0,0,0,0,0,0,0,0,0,0,0,0,0,0,0,0,0,0,0,0,0,0,0,0,0,0,0,0,0,0],"sum_hessian":[7.012675E1,7.9097548E0,6.2216995E1,3.5621593E0,4.3475957E0,2.678892E1,3.5428078E1,1.0637769E0,2.4983823E0,2.2978776E0,2.0497181E0,2.2100384E1,4.6885347E0,4.2451415E0,3.1182934E1,1.251578E0,1.0462996E0,1.6783524E1,5.3168607E0,3.664962E0,1.0235728E0,2.7520382E0,1.4931034E0,2.1792204E0,2.9003714E1,7.2893147E0,9.494209E0,3.0215936E0,2.2952669E0,1.2424927E0,1.5095457E0,4.2636585E0,2.4740055E1],"tree_param":{"num_deleted":"0","num_feature":"11","num_nodes":"33","size_leaf_vector":"1"}},{"base_weights":[-3.2073602E-2,-4.6359214E-1,2.8120693E-2,-6.613955E-1,-2.117086E-1,4.937841E-2,-5.4283317E-2,-1.2351449E-2,-7.9136625E-2,1.0789982E-1,-6.633787E-2,-2.54274E-2,2.6703405E-1,-1.8937951E-2,4.2150464E-2,6.990642E-2,-3.3226115E-1,-1.892596E-2,8.747317E-1,-5.2198577E-3,8.3809495E-2,-1.19240955E-1,-8.383303E-3,4.0358342E-2,-3.614354E-2,9.8142914E-2,2.5675211E-2],"categories":[],"categories_nodes":[],"categories_segments":[],"categories_sizes":[],"default_left":[0,0,0,0,0,0,0,0,0,0,0,0,0,0,0,0,0,0,0,0,0,0,0,0,0,0,0],"id":27,"left_children":[1,3,5,7,9,11,-1,-1,-1,13,-1,15,17,-1,-1,19,21,23,25,-1,-1,-1,-1,-1,-1,-1,-1],"loss_changes":[1.8462323E0,2.9328477E-1,7.899732E-1,2.0989513E-1,8.361361E-1,1.0087491E0,0E0,0E0,0E0,4.491635E-1,0E0,1.3896006E0,2.7669601E0,0E0,0E0,3.46409E0,2.3032818E0,1.8450216E0,8.335042E-2,0E0,0E0,0E0,0E0,0E0,0E0,0E0,0E0],"parents":[2147483647,0,0,1,1,2,2,3,3,4,4,5,5,9,9,11,11,12,12,15,15,16,16,17,17,18,18],"right_children":[2,4,6,8,10,12,-1,-1,-1,14,-1,16,18,-1,-1,20,22,24,26,-1,-1,-1,-1,-1,-1,-1,-1],"split_conditions":[1E0,1.29E2,7.25E3,1E0,1.67E2,2E0,-5.4283317E-2,-1.2351449E-2,-7.9136625E-2,1E0,-6.633787E-2,6.033E3,6.5E3,-1.8937951E-2,4.2150464E-2,5.042E3,6.783E3,1.27E2,1.612E1,-5.2198577E-3,8.3809495E-2,-1.19240955E-1,-8.383303E-3,4.0358342E-2,-3.614354E-2,9.8142914E-2,2.5675211E-2],"split_indices":[9,7,6,10,7,2,0,0,0,2,0,5,5,0,0,5,5,7,6,0,0,0,0,0,0,0,0],"split_type":[0,0,0,0,0,0,0,0,0,0,0,0,0,0,0,0,0,0,0,0,0,0,0,0,0,0,0],"sum_hessian":[6.9575516E1,7.696873E0,6.187864E1,3.4005961E0,4.296277E0,6.05382E1,1.3404385E0,1.0413436E0,2.3592527E0,2.9616668E0,1.33461E0,4.5711014E1,1.48271885E1,1.7237611E0,1.2379057E0,3.5464344E1,1.024667E1,1.0741495E1,4.0856934E0,3.1404577E1,4.0597663E0,1.4447173E0,8.801952E0,4.729282E0,6.0122128E0,2.9826055E0,1.1030877E0],"tree_param":{"num_deleted":"0","num_feature":"11","num_nodes":"27","size_leaf_vector":"1"}},{"base_weights":[-3.0368082E-2,-4.445667E-1,2.6161598E-2,-3.6043979E-3,-5.370225E-1,-1.3019188E-1,1.0048866E-1,-7.182515E-1,-1.16037376E-1,-3.4526315E-2,-6.959502E-2,2.560327E-1,-6.269313E-2,-8.2974754E-2,-1.8200679E-2,1.1267225E-2,-2.9346917E-2,-2.0762093E-1,3.5435343E-1,4.791021E-1,-1.0883803E-1,-1.9654858E-1,6.724206E-2,3.2480103E-3,-1.05741955E-1,8.194893E-2,-1.3977082E-3,-3.3293437E-2,5.9786916E-2,-4.8732776E-2,2.94709E-2,-6.1392216E-3,-9.355601E-2],"categories":[],"categories_nodes":[],"categories_segments":[],"categories_sizes":[],"default_left":[0,0,0,0,0,0,0,0,0,0,0,0,0,0,0,0,0,0,0,0,0,0,0,0,0,0,0,0,0,0,0,0,0],"id":28,"left_children":[1,3,5,-1,7,9,11,13,15,17,-1,19,21,-1,-1,-1,-1,23,25,27,29,31,-1,-1,-1,-1,-1,-1,-1,-1,-1,-1,-1],"loss_changes":[1.6548786E0,3.0107057E-1,7.417051E-1,0E0,4.3896794E-1,1.0929271E0,1.1089994E0,1.2359619E-1,1.6506961E-1,1.3326248E0,0E0,1.8625066E0,2.2789721E0,0E0,0E0,0E0,0E0,2.8039145E0,1.0617785E0,1.5481684E0,1.5570502E0,1.863343E0,0E0,0E0,0E0,0E0,0E0,0E0,0E0,0E0,0E0,0E0,0E0],"parents":[2147483647,0,0,1,1,2,2,4,4,5,5,6,6,7,7,8,8,9,9,11,11,12,12,17,17,18,18,19,19,20,20,21,21],"right_children":[2,4,6,-1,8,10,12,14,16,18,-1,20,22,-1,-1,-1,-1,24,26,28,30,32,-1,-1,-1,-1,-1,-1,-1,-1,-1,-1,-1],"split_conditions":[1E0,2.484E3,1E0,-3.6043979E-3,1.6E2,9.538E3,2E0,4.6E3,2E0,5.05E3,-6.959502E-2,1.49E2,9.167E3,-8.2974754E-2,-1.8200679E-2,1.1267225E-2,-2.9346917E-2,4.554E3,6.033E3,3.6E2,1.91E2,2.01E2,6.724206E-2,3.2480103E-3,-1.05741955E-1,8.194893E-2,-1.3977082E-3,-3.3293437E-2,5.9786916E-2,-4.8732776E-2,2.94709E-2,-6.1392216E-3,-9.355601E-2],"split_indices":[9,5,10,0,7,5,10,5,10,5,0,7,5,0,0,0,0,5,5,8,7,7,0,0,0,0,0,0,0,0,0,0,0],"split_type":[0,0,0,0,0,0,0,0,0,0,0,0,0,0,0,0,0,0,0,0,0,0,0,0,0,0,0,0,0,0,0,0,0],"sum_hessian":[6.918074E1,7.48357E0,6.169717E1,1.6375935E0,5.8459764E0,1.9637135E1,4.2060036E1,3.5930781E0,2.2528982E0,1.7704468E1,1.9326683E0,2.124265E1,2.0817387E1,2.5214822E0,1.071596E0,1.1436788E0,1.1092196E0,1.2573825E1,5.1306415E0,1.298872E1,8.253929E0,1.8230465E1,2.5869222E0,1.0553759E1,2.0200667E0,1.72606E0,3.4045815E0,1.4272237E0,1.1561496E1,4.1520653E0,4.1018634E0,1.6327444E1,1.9030209E0],"tree_param":{"num_deleted":"0","num_feature":"11","num_nodes":"33","size_leaf_vector":"1"}},{"base_weights":[-3.0676885E-2,-4.2427704E-1,2.2271758E-2,-1.9957045E-1,-6.515508E-1,4.2070426E-2,-5.104601E-2,2.9835774E-2,-3.782126E-1,-7.605874E-2,-1.9154701E-2,-6.230512E-2,6.717052E-2,-7.4833885E-2,1.1361632E-2,9.1155694E-4,2.5804052E-1,1.1783702E-2,-3.5097416E-2,-1.2375761E-3,8.408042E-2],"categories":[],"categories_nodes":[],"categories_segments":[],"categories_sizes":[],"default_left":[0,0,0,0,0,0,0,0,0,0,0,0,0,0,0,0,0,0,0,0,0],"id":29,"left_children":[1,3,5,7,9,11,-1,-1,13,-1,-1,-1,15,-1,-1,17,19,-1,-1,-1,-1],"loss_changes":[1.460529E0,2.941476E-1,6.788063E-1,6.125735E-1,3.9280415E-2,1.0604299E0,0E0,0E0,9.1796744E-1,0E0,0E0,0E0,7.547358E-1,0E0,0E0,1.9058948E0,2.4340386E0,0E0,0E0,0E0,0E0],"parents":[2147483647,0,0,1,1,2,2,3,3,4,4,5,5,8,8,12,12,15,15,16,16],"right_children":[2,4,6,8,10,12,-1,-1,14,-1,-1,-1,16,-1,-1,18,20,-1,-1,-1,-1],"split_conditions":[1E0,2E0,4.8E2,2.484E3,1E0,1.5E3,-5.104601E-2,2.9835774E-2,4.6E3,-7.605874E-2,-1.9154701E-2,-6.230512E-2,2E0,-7.4833885E-2,1.1361632E-2,6.033E3,6.5E3,1.1783702E-2,-3.5097416E-2,-1.2375761E-3,8.408042E-2],"split_indices":[9,10,8,5,2,5,0,0,5,0,0,0,2,0,0,5,5,0,0,0,0],"split_type":[0,0,0,0,0,0,0,0,0,0,0,0,0,0,0,0,0,0,0,0,0],"sum_hessian":[6.8627556E1,7.3058257E0,6.132173E1,4.618048E0,2.6877778E0,6.0012432E1,1.3092979E0,1.0424082E0,3.5756397E0,1.6445311E0,1.0432466E0,1.316051E0,5.869638E1,1.7426581E0,1.8329816E0,4.4316906E1,1.43794775E1,3.3763134E1,1.055377E1,1.0490431E1,3.889047E0],"tree_param":{"num_deleted":"0","num_feature":"11","num_nodes":"21","size_leaf_vector":"1"}},{"base_weights":[-3.029965E-2,-4.0606648E-1,1.9434396E-2,-6.1026967E-1,-1.6499025E-1,3.8920037E-2,-5.0023984E-2,-1.0593589E-2,-7.427312E-2,1.5485042E-1,-6.386009E-2,9.561237E-3,5.8478154E-2,4.5718443E-2,-1.5694646E-2,3.7473217E-2,-5.8782555E-2,-5.817182E-4,4.701039E-2],"categories":[],"categories_nodes":[],"categories_segments":[],"categories_sizes":[],"default_left":[0,0,0,0,0,0,0,0,0,0,0,0,0,0,0,0,0,0,0],"id":30,"left_children":[1,3,5,7,9,11,-1,-1,-1,13,-1,15,-1,-1,-1,17,-1,-1,-1],"loss_changes":[1.3029139E0,3.002864E-1,6.4881516E-1,1.9116294E-1,8.723253E-1,9.6929216E-1,0E0,0E0,0E0,4.3491942E-1,0E0,1.0015361E0,0E0,0E0,0E0,1.0714283E0,0E0,0E0,0E0],"parents":[2147483647,0,0,1,1,2,2,3,3,4,4,5,5,9,9,11,11,15,15],"right_children":[2,4,6,8,10,12,-1,-1,-1,14,-1,16,-1,-1,-1,18,-1,-1,-1],"split_conditions":[1E0,1.29E2,7.25E3,1E0,1.67E2,5.5E3,-5.0023984E-2,-1.0593589E-2,-7.427312E-2,1E0,-6.386009E-2,4.333E3,5.8478154E-2,4.5718443E-2,-1.5694646E-2,3.013E3,-5.8782555E-2,-5.817182E-4,4.701039E-2],"split_indices":[9,7,6,10,7,6,0,0,0,1,0,6,0,0,0,6,0,0,0],"split_type":[0,0,0,0,0,0,0,0,0,0,0,0,0,0,0,0,0,0,0],"sum_hessian":[6.8295494E1,7.145177E0,6.1150322E1,3.039302E0,4.105875E0,5.9831974E1,1.3183455E0,1.0065837E0,2.0327184E0,2.8525333E0,1.2533417E0,5.774378E1,2.0881956E0,1.2115062E0,1.641027E0,5.6061657E1,1.6821232E0,5.185903E1,4.2026253E0],"tree_param":{"num_deleted":"0","num_feature":"11","num_nodes":"19","size_leaf_vector":"1"}},{"base_weights":[-2.9176468E-2,-3.895788E-1,1.7553903E-2,-2.0167479E-1,-6.9740884E-2,-1.2895879E-1,8.781797E-2,-5.0152E-1,3.9903175E-2,-3.8606722E-2,-6.523417E-2,2.3396955E-1,-6.335442E-2,-7.795072E-2,1.276052E-2,-2.0101047E-1,3.3204347E-1,4.4519615E-1,-1.00759916E-1,-1.8677765E-1,6.3836175E-1,2.3024909E-3,-9.787169E-2,6.7746714E-2,-1.2553239E-2,-3.208999E-2,5.6270536E-2,2.6905855E-2,-4.632878E-2,-4.599462E-2,1.2187085E-2,1.993554E-2,7.450708E-2],"categories":[],"categories_nodes":[],"categories_segments":[],"categories_sizes":[],"default_left":[0,0,0,0,0,0,0,0,0,0,0,0,0,0,0,0,0,0,0,0,0,0,0,0,0,0,0,0,0,0,0,0,0],"id":31,"left_children":[1,3,5,7,-1,9,11,13,-1,15,-1,17,19,-1,-1,21,23,25,27,29,31,-1,-1,-1,-1,-1,-1,-1,-1,-1,-1,-1,-1],"loss_changes":[1.1689472E0,3.199545E-1,6.4998645E-1,1.3441585E0,0E0,9.448844E-1,9.543715E-1,9.179237E-1,0E0,1.1837636E0,0E0,1.5886446E0,1.9977877E0,0E0,0E0,2.379219E0,1.0382409E0,1.4023223E0,1.3665491E0,1.6765124E0,1.4057517E-2,0E0,0E0,0E0,0E0,0E0,0E0,0E0,0E0,0E0,0E0,0E0,0E0],"parents":[2147483647,0,0,1,1,2,2,3,3,5,5,6,6,7,7,9,9,11,11,12,12,15,15,16,16,17,17,18,18,19,19,20,20],"right_children":[2,4,6,8,-1,10,12,14,-1,16,-1,18,20,-1,-1,22,24,26,28,30,32,-1,-1,-1,-1,-1,-1,-1,-1,-1,-1,-1,-1],"split_conditions":[1E0,5.316E3,1E0,4.31E3,-6.9740884E-2,9.538E3,2E0,2.336E3,3.9903175E-2,5.05E3,-6.523417E-2,1.49E2,9.167E3,-7.795072E-2,1.276052E-2,4.554E3,1.81E2,3.6E2,1E0,1.612E1,1.84E2,2.3024909E-3,-9.787169E-2,6.7746714E-2,-1.2553239E-2,-3.208999E-2,5.6270536E-2,2.6905855E-2,-4.632878E-2,-4.599462E-2,1.2187085E-2,1.993554E-2,7.450708E-2],"split_indices":[9,5,10,5,0,5,10,6,0,5,0,7,5,0,0,5,7,8,2,6,7,0,0,0,0,0,0,0,0,0,0,0,0],"split_type":[0,0,0,0,0,0,0,0,0,0,0,0,0,0,0,0,0,0,0,0,0,0,0,0,0,0,0,0,0,0,0,0,0],"sum_hessian":[6.800172E1,6.963079E0,6.103864E1,5.3515587E0,1.6115205E0,1.9513752E1,4.1524887E1,3.6798584E0,1.6717002E0,1.7556688E1,1.9570638E0,2.0834576E1,2.0690311E1,2.386374E0,1.2934844E0,1.2525993E1,5.030696E0,1.2571487E1,8.263088E0,1.8219545E1,2.470766E0,1.0477976E1,2.0480168E0,2.5928206E0,2.4378753E0,1.4416779E0,1.1129809E1,4.218044E0,4.0450444E0,9.405255E0,8.81429E0,1.0439829E0,1.4267831E0],"tree_param":{"num_deleted":"0","num_feature":"11","num_nodes":"33","size_leaf_vector":"1"}},{"base_weights":[-2.8203817E-2,-3.7362054E-1,1.5662968E-2,-1.9023097E-1,-6.776235E-2,-6.2649553E-3,4.9120728E-2,-4.8073733E-1,3.7233632E-2,2.941777E-2,-8.394393E-2,-7.592868E-2,1.1991042E-2,-2.8266216E-2,2.8972742E-1,5.4710708E-3,-1.00726776E-1,-1.2094929E-3,9.053791E-2],"categories":[],"categories_nodes":[],"categories_segments":[],"categories_sizes":[],"default_left":[0,0,0,0,0,0,0,0,0,0,0,0,0,0,0,0,0,0,0],"id":32,"left_children":[1,3,5,7,-1,9,-1,11,-1,13,-1,-1,-1,15,17,-1,-1,-1,-1],"loss_changes":[1.0427468E0,3.032484E-1,6.462571E-1,1.1963713E0,0E0,1.8069609E0,0E0,8.509202E-1,0E0,8.858975E-1,0E0,0E0,0E0,4.0161448E0,1.9977474E0,0E0,0E0,0E0,0E0],"parents":[2147483647,0,0,1,1,2,2,3,3,5,5,7,7,9,9,13,13,14,14],"right_children":[2,4,6,8,-1,10,-1,12,-1,14,-1,-1,-1,16,18,-1,-1,-1,-1],"split_conditions":[1E0,5.316E3,3.6E2,4.31E3,-6.776235E-2,3.04E2,4.9120728E-2,2.336E3,3.7233632E-2,6.783E3,-8.394393E-2,-7.592868E-2,1.1991042E-2,6.033E3,2E0,5.4710708E-3,-1.00726776E-1,-1.2094929E-3,9.053791E-2],"split_indices":[9,5,7,5,0,7,0,6,0,5,0,0,0,5,2,0,0,0,0],"split_type":[0,0,0,0,0,0,0,0,0,0,0,0,0,0,0,0,0,0,0],"sum_hessian":[6.743142E1,6.751495E0,6.067992E1,5.2251687E0,1.526326E0,5.894856E1,1.7313635E0,3.5417094E0,1.6834594E0,5.7452698E1,1.49586E0,2.23918E0,1.3025293E0,4.7760498E1,9.692198E0,4.4899117E1,2.8613842E0,7.161592E0,2.5306058E0],"tree_param":{"num_deleted":"0","num_feature":"11","num_nodes":"19","size_leaf_vector":"1"}},{"base_weights":[-2.7419288E-2,-3.586472E-1,1.3699453E-2,3.4551078E-3,-4.605785E-1,-6.34768E-2,1.5762061E-1,-6.469847E-1,-7.0123374E-2,4.4201847E-2,-6.569372E-1,7.496429E-1,-8.20495E-2,-1.9126663E-2,-7.556395E-2,1.3261466E-2,-2.438352E-2,1.9795331E-1,-3.8151562E-1,-1.2668703E-1,2.5570417E-2,9.251124E-2,3.0775664E-2,-1.4715484E-1,1.1895112E-1,4.0794006E-3,6.893655E-2,-6.195695E-2,4.8534047E-2,6.9903575E-2,-4.8029702E-2,8.492174E-2,-5.7366486E-3],"categories":[],"categories_nodes":[],"categories_segments":[],"categories_sizes":[],"default_left":[0,0,0,0,0,0,0,0,0,0,0,0,0,0,0,0,0,0,0,0,0,0,0,0,0,0,0,0,0,0,0,0,0],"id":33,"left_children":[1,3,5,-1,7,9,11,13,15,17,19,21,23,-1,-1,-1,-1,25,27,-1,29,-1,-1,-1,31,-1,-1,-1,-1,-1,-1,-1,-1],"loss_changes":[9.320012E-1,3.1866497E-1,6.932808E-1,0E0,3.963176E-1,2.633474E0,3.1490133E0,5.2841425E-2,1.4089675E-1,2.3948338E0,2.6642377E0,2.0914435E-1,4.752782E0,0E0,0E0,0E0,0E0,2.0331867E0,2.3113213E0,0E0,1.6861566E0,0E0,0E0,0E0,2.011575E0,0E0,0E0,0E0,0E0,0E0,0E0,0E0,0E0],"parents":[2147483647,0,0,1,1,2,2,4,4,5,5,6,6,7,7,8,8,9,9,10,10,11,11,12,12,17,17,18,18,20,20,24,24],"right_children":[2,4,6,-1,8,10,12,14,16,18,20,22,24,-1,-1,-1,-1,26,28,-1,30,-1,-1,-1,32,-1,-1,-1,-1,-1,-1,-1,-1],"split_conditions":[1E0,2.484E3,5.05E3,3.4551078E-3,1.6E2,1.64E2,6.033E3,1E0,2E0,4.2E3,1.86E2,2E0,6.25E3,-1.9126663E-2,-7.556395E-2,1.3261466E-2,-2.438352E-2,3.617E3,1.4E2,-1.2668703E-1,1E0,9.251124E-2,3.0775664E-2,-1.4715484E-1,3.6E2,4.0794006E-3,6.893655E-2,-6.195695E-2,4.8534047E-2,6.9903575E-2,-4.8029702E-2,8.492174E-2,-5.7366486E-3],"split_indices":[9,5,5,0,7,7,5,10,10,5,7,10,5,0,0,0,0,5,7,0,2,0,0,0,8,0,0,0,0,0,0,0,0],"split_type":[0,0,0,0,0,0,0,0,0,0,0,0,0,0,0,0,0,0,0,0,0,0,0,0,0,0,0,0,0,0,0,0,0],"sum_hessian":[6.7069756E1,6.5538263E0,6.0515926E1,1.4853086E0,5.0685177E0,3.975608E1,2.0759848E1,2.9859848E0,2.082533E0,3.4433853E1,5.322229E0,5.369223E0,1.5390624E1,1.1062953E0,1.8796896E0,1.0701499E0,1.0123831E0,2.5690517E1,8.743335E0,2.3584049E0,2.9638238E0,3.0604067E0,2.3088162E0,1.1461666E0,1.4244457E1,2.0285873E1,5.404643E0,7.0833826E0,1.6599524E0,1.1075193E0,1.8563045E0,2.0281065E0,1.22163515E1],"tree_param":{"num_deleted":"0","num_feature":"11","num_nodes":"33","size_leaf_vector":"1"}},{"base_weights":[-2.571086E-2,-3.4240833E-1,1.3197278E-2,-1.6080393E-1,-6.518107E-2,-1.0526784E-1,9.7030364E-2,-4.478456E-1,3.6332875E-2,-7.684989E-4,-7.1164066E-1,-1.0197333E-2,4.18679E-1,-7.2993495E-2,1.1896053E-2,-2.9033425E-1,2.8155664E-1,-9.05535E-2,-1.2489873E-2,2.6085937E-1,-3.0179244E-1,1.8042926E-2,9.300876E-2,-4.8233017E-2,2.9140523E-2,4.9007263E-2,-2.9371902E-2,-3.4494545E-2,3.82349E-2,-7.3438965E-2,-7.883613E-3,3.72909E-2,-5.958877E-2],"categories":[],"categories_nodes":[],"categories_segments":[],"categories_sizes":[],"default_left":[0,0,0,0,0,0,0,0,0,0,0,0,0,0,0,0,0,0,0,0,0,0,0,0,0,0,0,0,0,0,0,0,0],"id":34,"left_children":[1,3,5,7,-1,9,11,13,-1,15,17,19,21,-1,-1,23,25,-1,-1,27,29,31,-1,-1,-1,-1,-1,-1,-1,-1,-1,-1,-1],"loss_changes":[8.373676E-1,3.128022E-1,6.175868E-1,1.0670455E0,0E0,1.6357733E0,1.2574139E0,7.7944547E-1,0E0,1.964363E0,3.186432E-1,2.3096707E0,1.849343E0,0E0,0E0,1.465304E0,1.6035097E0,0E0,0E0,1.2479826E0,1.2983325E0,1.5570344E0,0E0,0E0,0E0,0E0,0E0,0E0,0E0,0E0,0E0,0E0,0E0],"parents":[2147483647,0,0,1,1,2,2,3,3,5,5,6,6,7,7,9,9,10,10,11,11,12,12,15,15,16,16,19,19,20,20,21,21],"right_children":[2,4,6,8,-1,10,12,14,-1,16,18,20,22,-1,-1,24,26,-1,-1,28,30,32,-1,-1,-1,-1,-1,-1,-1,-1,-1,-1,-1],"split_conditions":[1E0,5.316E3,1E0,4.31E3,-6.518107E-2,8.666E3,6.5E3,2.336E3,3.6332875E-2,3.617E3,1.25E4,4E3,2E0,-7.2993495E-2,1.1896053E-2,1.733E3,1.8E3,-9.05535E-2,-1.2489873E-2,7.1E1,1E0,2.42E2,9.300876E-2,-4.8233017E-2,2.9140523E-2,4.9007263E-2,-2.9371902E-2,-3.4494545E-2,3.82349E-2,-7.3438965E-2,-7.883613E-3,3.72909E-2,-5.958877E-2],"split_indices":[9,5,1,5,0,5,5,6,0,5,5,5,2,0,0,6,6,0,0,7,3,7,0,0,0,0,0,0,0,0,0,0,0],"split_type":[0,0,0,0,0,0,0,0,0,0,0,0,0,0,0,0,0,0,0,0,0,0,0,0,0,0,0,0,0,0,0,0,0],"sum_hessian":[6.65898E1,6.432364E0,6.0157433E1,5.0109186E0,1.4214453E0,2.4823496E1,3.5333935E1,3.3318033E0,1.6791155E0,2.2028482E1,2.795014E0,2.7225945E1,8.10799E0,2.0324736E0,1.2993296E0,1.0860786E1,1.1167695E1,1.6924127E0,1.1026013E0,1.4164512E1,1.3061433E1,5.126884E0,2.9811063E0,8.294253E0,2.5665329E0,8.305404E0,2.862291E0,2.058844E0,1.2105667E1,3.66209E0,9.399343E0,3.497713E0,1.6291711E0],"tree_param":{"num_deleted":"0","num_feature":"11","num_nodes":"33","size_leaf_vector":"1"}},{"base_weights":[-2.5931988E-2,-3.290427E-1,1.0656272E-2,4.9923356E-3,-4.324123E-1,-1.3261823E-1,7.9582594E-2,-6.151009E-1,-6.3243635E-2,-4.4176687E-2,-6.3473254E-2,-7.3995456E-2,1.904749E-1,-1.721648E-2,-7.2531156E-2,1.2369346E-2,-2.175062E-2,-1.9558598E-1,3.0983767E-1,4.4129896E-1,-1.9021314E-1,2.528689E-1,-4.5442622E-2,6.7931967E-4,-8.764648E-2,6.3290514E-2,-1.0555423E-2,-1.9720402E-2,7.667103E-2,-1.0214728E-1,-1.4738765E-3,4.931995E-2,1.3175365E-3],"categories":[],"categories_nodes":[],"categories_segments":[],"categories_sizes":[],"default_left":[0,0,0,0,0,0,0,0,0,0,0,0,0,0,0,0,0,0,0,0,0,0,0,0,0,0,0,0,0,0,0,0,0],"id":35,"left_children":[1,3,5,-1,7,9,11,13,15,17,-1,19,21,-1,-1,-1,-1,23,25,27,29,31,-1,-1,-1,-1,-1,-1,-1,-1,-1,-1,-1],"loss_changes":[7.4737084E-1,3.0581957E-1,6.111529E-1,0E0,3.5255373E-1,8.6587214E-1,7.240689E-1,5.9075475E-2,1.14456035E-1,1.0355945E0,0E0,1.1738732E0,1.100261E0,0E0,0E0,0E0,0E0,1.846043E0,8.500063E-1,9.0969896E-1,2.2530622E0,1.3167253E0,0E0,0E0,0E0,0E0,0E0,0E0,0E0,0E0,0E0,0E0,0E0],"parents":[2147483647,0,0,1,1,2,2,4,4,5,5,6,6,7,7,8,8,9,9,11,11,12,12,17,17,18,18,19,19,20,20,21,21],"right_children":[2,4,6,-1,8,10,12,14,16,18,-1,20,22,-1,-1,-1,-1,24,26,28,30,32,-1,-1,-1,-1,-1,-1,-1,-1,-1,-1,-1],"split_conditions":[1E0,2.484E3,1E0,4.9923356E-3,1.6E2,9.538E3,1E0,1E0,1.66E2,5.05E3,-6.3473254E-2,7.3E1,5.701E3,-1.721648E-2,-7.2531156E-2,1.2369346E-2,-2.175062E-2,4.554E3,1.81E2,5.4E1,8.4E1,2E0,-4.5442622E-2,6.7931967E-4,-8.764648E-2,6.3290514E-2,-1.0555423E-2,-1.9720402E-2,7.667103E-2,-1.0214728E-1,-1.4738765E-3,4.931995E-2,1.3175365E-3],"split_indices":[9,5,10,0,7,5,1,10,7,5,0,7,6,0,0,0,0,5,7,7,7,10,0,0,0,0,0,0,0,0,0,0,0],"split_type":[0,0,0,0,0,0,0,0,0,0,0,0,0,0,0,0,0,0,0,0,0,0,0,0,0,0,0,0,0,0,0,0,0],"sum_hessian":[6.607346E1,6.2557116E0,5.9817757E1,1.4514714E0,4.8042397E0,1.9129642E1,4.0688114E1,2.768184E0,2.0360558E0,1.7189835E1,1.9398068E0,1.720002E1,2.3488092E1,1.0620307E0,1.7061533E0,1.010131E0,1.0259249E0,1.2353749E1,4.8360868E0,2.6505675E0,1.4549453E1,2.1970362E1,1.5177305E0,1.0286339E1,2.0674098E0,2.4258046E0,2.4102821E0,1.0278215E0,1.6227459E0,1.6956394E0,1.2853813E1,1.0442491E1,1.1527871E1],"tree_param":{"num_deleted":"0","num_feature":"11","num_nodes":"33","size_leaf_vector":"1"}},{"base_weights":[-2.6832292E-2,-6.780047E-3,-5.2764554E-2,-4.660787E-1,2.793314E-2,-3.1989997E-3,-6.189976E-2,-3.6653165E-2,2.1563342E-1,1.0258534E-1,-2.9465592E-1,-5.838638E-2,3.385124E-1,-3.686709E-3,5.035789E-2,-4.086918E-2,4.3955937E-2,5.8842837E-3,5.8229845E-2],"categories":[],"categories_nodes":[],"categories_segments":[],"categories_sizes":[],"default_left":[0,0,0,0,0,0,0,0,0,0,0,0,0,0,0,0,0,0,0],"id":36,"left_children":[1,3,-1,5,7,-1,-1,9,11,13,15,-1,17,-1,-1,-1,-1,-1,-1],"loss_changes":[6.646741E-1,1.0492663E0,0E0,2.8711057E-1,7.5189054E-1,0E0,0E0,1.7011985E0,1.7553968E0,1.7493907E0,1.5663368E0,0E0,9.4595194E-1,0E0,0E0,0E0,0E0,0E0,0E0],"parents":[2147483647,0,0,1,1,3,3,4,4,7,7,8,8,9,9,10,10,12,12],"right_children":[2,4,-1,6,8,-1,-1,10,12,14,16,-1,18,-1,-1,-1,-1,-1,-1],"split_conditions":[4.8E2,1.958E3,-5.2764554E-2,1.774E3,2E0,-3.1989997E-3,-6.189976E-2,1.55E2,3.073E3,1.29E2,5E3,-5.838638E-2,1.51E2,-3.686709E-3,5.035789E-2,-4.086918E-2,4.3955937E-2,5.8842837E-3,5.8229845E-2],"split_indices":[8,5,0,6,2,0,0,7,5,7,6,0,7,0,0,0,0,0,0],"split_type":[0,0,0,0,0,0,0,0,0,0,0,0,0,0,0,0,0,0,0],"sum_hessian":[6.5542816E1,6.3994076E1,1.5487443E0,3.6235423E0,6.0370533E1,1.2589562E0,2.364586E0,4.5514164E1,1.4856368E1,2.9952068E1,1.5562096E1,1.4793861E0,1.3376983E1,2.2897224E1,7.0548444E0,1.3853742E1,1.7083542E0,6.8081236E0,6.5688586E0],"tree_param":{"num_deleted":"0","num_feature":"11","num_nodes":"19","size_leaf_vector":"1"}},{"base_weights":[-2.4896886E-2,-3.1668565E-1,9.949554E-3,-1.3928077E-1,-6.248045E-2,-1.1093071E-2,4.690559E-2,-4.1517505E-1,3.381545E-2,3.8878135E-2,-5.063622E-1,-6.999854E-2,1.1915124E-2,-2.6682416E-2,3.8758078E-1,-1.4401877E-1,-1.04113914E-1,5.209422E-3,-8.9389265E-2,6.8278745E-2,-5.602106E-3,-6.389635E-2,3.5627026E-2],"categories":[],"categories_nodes":[],"categories_segments":[],"categories_sizes":[],"default_left":[0,0,0,0,0,0,0,0,0,0,0,0,0,0,0,0,0,0,0,0,0,0,0],"id":37,"left_children":[1,3,5,7,-1,9,-1,11,-1,13,15,-1,-1,17,19,21,-1,-1,-1,-1,-1,-1,-1],"loss_changes":[6.7900276E-1,3.0225962E-1,5.8821505E-1,9.052163E-1,0E0,1.4719764E0,0E0,7.11725E-1,0E0,1.2501228E0,9.0599227E-1,0E0,0E0,3.2289977E0,1.1705985E0,1.319358E0,0E0,0E0,0E0,0E0,0E0,0E0,0E0],"parents":[2147483647,0,0,1,1,2,2,3,3,5,5,7,7,9,9,10,10,13,13,14,14,15,15],"right_children":[2,4,6,8,-1,10,-1,12,-1,14,16,-1,-1,18,20,22,-1,-1,-1,-1,-1,-1,-1],"split_conditions":[1E0,5.316E3,3.6E2,4.31E3,-6.248045E-2,2.42E2,4.690559E-2,2.336E3,3.381545E-2,6.783E3,1.0833E4,-6.999854E-2,1.1915124E-2,6.033E3,1E4,1E0,-1.04113914E-1,5.209422E-3,-8.9389265E-2,6.8278745E-2,-5.602106E-3,-6.389635E-2,3.5627026E-2],"split_indices":[9,5,7,5,0,7,0,6,0,5,5,0,0,5,5,2,0,0,0,0,0,0,0],"split_type":[0,0,0,0,0,0,0,0,0,0,0,0,0,0,0,0,0,0,0,0,0,0,0],"sum_hessian":[6.546983E1,6.1216655E0,5.9348167E1,4.806357E0,1.3153087E0,5.7680294E1,1.667874E0,3.128756E0,1.6776006E0,5.3230946E1,4.449346E0,1.8386647E0,1.2900915E0,4.5584045E1,7.646902E0,3.4089108E0,1.0404352E0,4.264971E1,2.9343343E0,4.267675E0,3.3792274E0,1.5742694E0,1.8346412E0],"tree_param":{"num_deleted":"0","num_feature":"11","num_nodes":"23","size_leaf_vector":"1"}},{"base_weights":[-2.534523E-2,-3.0477864E-1,7.4203373E-3,7.1179452E-3,-4.1236535E-1,-6.147159E-2,1.3838075E-1,-6.7577414E-2,-1.3164005E-1,3.8929865E-2,-6.008224E-1,7.026881E-1,-8.25389E-2,4.5184337E-2,-5.0451424E-2,1.6813363E-1,-3.831371E-1,-1.1363204E-1,2.6462693E-2,8.823834E-2,2.756225E-2,-1.2929676E-1,1.03177376E-1,-9.40679E-3,3.805748E-2,-6.4927466E-2,4.641303E-2,6.827151E-2,-4.5732897E-2,8.03818E-2,-5.812773E-3],"categories":[],"categories_nodes":[],"categories_segments":[],"categories_sizes":[],"default_left":[0,0,0,0,0,0,0,0,0,0,0,0,0,0,0,0,0,0,0,0,0,0,0,0,0,0,0,0,0,0,0],"id":38,"left_children":[1,3,5,-1,7,9,11,-1,13,15,17,19,21,-1,-1,23,25,-1,27,-1,-1,-1,29,-1,-1,-1,-1,-1,-1,-1,-1],"loss_changes":[6.077477E-1,3.110457E-1,5.513414E-1,0E0,3.223257E-1,2.1959033E0,2.6819875E0,0E0,1.0839573E0,1.9600838E0,2.1654704E0,2.1930814E-1,3.7349055E0,0E0,0E0,1.5570163E0,2.2072592E0,0E0,1.5519798E0,0E0,0E0,0E0,1.7211969E0,0E0,0E0,0E0,0E0,0E0,0E0,0E0,0E0],"parents":[2147483647,0,0,1,1,2,2,4,4,5,5,6,6,8,8,9,9,10,10,11,11,12,12,15,15,16,16,18,18,22,22],"right_children":[2,4,6,-1,8,10,12,-1,14,16,18,20,22,-1,-1,24,26,-1,28,-1,-1,-1,30,-1,-1,-1,-1,-1,-1,-1,-1],"split_conditions":[1E0,2.484E3,5.05E3,7.1179452E-3,4.31E3,1.64E2,6.033E3,-6.7577414E-2,4.945E3,4.333E3,1.86E2,2E0,6.25E3,4.5184337E-2,-5.0451424E-2,1.612E1,1.4E2,-1.1363204E-1,1E0,8.823834E-2,2.756225E-2,-1.2929676E-1,3.6E2,-9.40679E-3,3.805748E-2,-6.4927466E-2,4.641303E-2,6.827151E-2,-4.5732897E-2,8.03818E-2,-5.812773E-3],"split_indices":[9,5,5,0,5,7,5,0,5,5,7,10,5,0,0,6,7,0,2,0,0,0,8,0,0,0,0,0,0,0,0],"split_type":[0,0,0,0,0,0,0,0,0,0,0,0,0,0,0,0,0,0,0,0,0,0,0,0,0,0,0,0,0,0,0],"sum_hessian":[6.513147E1,5.9643264E0,5.9167145E1,1.4023303E0,4.561996E0,3.9119095E1,2.0048052E1,1.627575E0,2.9344208E0,3.376203E1,5.357063E0,5.026878E0,1.50211735E1,1.0615283E0,1.8728926E0,2.6309708E1,7.4523244E0,2.4521947E0,2.9048681E0,2.787735E0,2.2391427E0,1.2050503E0,1.3816123E1,1.20251255E1,1.4284581E1,5.8488197E0,1.603505E0,1.0582289E0,1.8466392E0,1.8401369E0,1.19759865E1],"tree_param":{"num_deleted":"0","num_feature":"11","num_nodes":"31","size_leaf_vector":"1"}},{"base_weights":[-2.392313E-2,-3.6241925E-1,2.7448738E-3,-2.6539512E-2,-6.455131E-2,2.847325E-2,-6.682355E-2,2.004729E-2,-2.2100639E-2,-2.8477266E-2,1.957787E-1,2.5636187E-1,-1.3391002E-1,-5.4856654E-2,3.1175876E-1,-4.2184584E-2,4.2636726E-2,-3.2175545E-2,4.9231555E-3,4.877757E-3,5.45996E-2],"categories":[],"categories_nodes":[],"categories_segments":[],"categories_sizes":[],"default_left":[0,0,0,0,0,0,0,0,0,0,0,0,0,0,0,0,0,0,0,0,0],"id":39,"left_children":[1,3,5,7,-1,9,-1,-1,-1,11,13,15,17,-1,19,-1,-1,-1,-1,-1,-1],"loss_changes":[5.9292567E-1,4.3893105E-1,1.0854963E0,1.8718706E-1,0E0,5.815958E-1,0E0,0E0,0E0,1.4150239E0,1.507367E0,1.651465E0,1.1928015E0,0E0,8.376448E-1,0E0,0E0,0E0,0E0,0E0,0E0],"parents":[2147483647,0,0,1,1,2,2,3,3,5,5,9,9,10,10,11,11,12,12,14,14],"right_children":[2,4,6,8,-1,10,-1,-1,-1,12,14,16,18,-1,20,-1,-1,-1,-1,-1,-1],"split_conditions":[1.958E3,1.14E2,4.8E2,1.782E3,-6.455131E-2,2E0,-6.682355E-2,2.004729E-2,-2.2100639E-2,3.036E3,3.073E3,3.6E2,4.75E3,-5.4856654E-2,1.51E2,-4.2184584E-2,4.2636726E-2,-3.2175545E-2,4.9231555E-3,4.877757E-3,5.45996E-2],"split_indices":[5,7,8,5,0,2,0,0,0,5,5,8,5,0,7,0,0,0,0,0,0],"split_type":[0,0,0,0,0,0,0,0,0,0,0,0,0,0,0,0,0,0,0,0,0],"sum_hessian":[6.457326E1,3.7963445E0,6.0776917E1,2.2365336E0,1.559811E0,5.9454723E1,1.3221943E0,1.0176672E0,1.2188663E0,4.4975067E1,1.4479655E1,1.1763377E1,3.321169E1,1.4491783E0,1.3030477E1,2.0607994E0,9.702579E0,1.6021658E1,1.7190031E1,6.7077923E0,6.3226843E0],"tree_param":{"num_deleted":"0","num_feature":"11","num_nodes":"21","size_leaf_vector":"1"}},{"base_weights":[-2.374783E-2,-2.3164578E-1,1.7154394E-2,-7.3032796E-1,3.3804882E-2,4.7230642E-2,-7.888454E-2,-2.0207856E-2,-9.945785E-2,4.695806E-1,-5.159203E-1,9.0238586E-2,-2.2923986E-3,7.633486E-2,-3.3389367E-2,-9.3109205E-2,2.0748183E-2,-6.700942E-2,2.6042225E-2,-3.5476558E-2,6.656474E-3],"categories":[],"categories_nodes":[],"categories_segments":[],"categories_sizes":[],"default_left":[0,0,0,0,0,0,0,0,0,0,0,0,0,0,0,0,0,0,0,0,0],"id":40,"left_children":[1,3,5,7,9,11,-1,-1,-1,13,15,-1,17,-1,-1,-1,-1,-1,19,-1,-1],"loss_changes":[5.604773E-1,1.4580281E0,1.3854781E0,3.3025527E-1,2.1640227E0,2.312642E0,0E0,0E0,0E0,1.4346647E0,1.4016684E0,0E0,1.0121754E0,0E0,0E0,0E0,0E0,0E0,8.1667256E-1,0E0,0E0],"parents":[2147483647,0,0,1,1,2,2,3,3,4,4,5,5,9,9,10,10,12,12,18,18],"right_children":[2,4,6,8,10,12,-1,-1,-1,14,16,-1,18,-1,-1,-1,-1,-1,20,-1,-1],"split_conditions":[2.479E3,1.612E1,4.8E2,2.214E3,2.541E3,2.6E3,-7.888454E-2,-2.0207856E-2,-9.945785E-2,1.31E2,1.29E2,9.0238586E-2,2.661E3,7.633486E-2,-3.3389367E-2,-9.3109205E-2,2.0748183E-2,-6.700942E-2,1E0,-3.5476558E-2,6.656474E-3],"split_indices":[5,6,8,5,6,5,0,0,0,7,7,0,5,0,0,0,0,0,9,0,0],"split_type":[0,0,0,0,0,0,0,0,0,0,0,0,0,0,0,0,0,0,0,0,0],"sum_hessian":[6.444415E1,9.827828E0,5.4616325E1,2.8056984E0,7.02213E0,5.3559143E1,1.0571824E0,1.5239576E0,1.2817407E0,3.998359E0,3.0237713E0,1.9891589E0,5.1569984E1,2.9644358E0,1.0339231E0,1.7387652E0,1.285006E0,1.1771492E0,5.0392834E1,4.1008234E0,4.629201E1],"tree_param":{"num_deleted":"0","num_feature":"11","num_nodes":"21","size_leaf_vector":"1"}},{"base_weights":[-2.490434E-2,-3.4513384E-1,3.5704058E-4,-3.1007562E-2,-6.0030162E-2,2.3505023E-2,-5.9426863E-2,1.8392714E-2,-2.1401009E-2,5.9315696E-2,-2.458031E-1,-4.0004525E-2,2.4043666E-1,-4.9695477E-1,3.4608733E-2,7.5358315E-3,-7.827275E-2,5.960341E-2,-3.4956322E-3,-1.1368814E-2,-1.001352E-1],"categories":[],"categories_nodes":[],"categories_segments":[],"categories_sizes":[],"default_left":[0,0,0,0,0,0,0,0,0,0,0,0,0,0,0,0,0,0,0,0,0],"id":41,"left_children":[1,3,5,7,-1,9,-1,-1,-1,11,13,15,17,19,-1,-1,-1,-1,-1,-1,-1],"loss_changes":[5.263385E-1,3.6270648E-1,8.5762006E-1,1.647094E-1,0E0,5.928183E-1,0E0,0E0,0E0,9.760992E-1,1.2469707E0,3.1055243E0,1.8981534E0,9.470171E-1,0E0,0E0,0E0,0E0,0E0,0E0,0E0],"parents":[2147483647,0,0,1,1,2,2,3,3,5,5,9,9,10,10,11,11,12,12,13,13],"right_children":[2,4,6,8,-1,10,-1,-1,-1,12,14,16,18,20,-1,-1,-1,-1,-1,-1,-1],"split_conditions":[1.958E3,1.14E2,4.8E2,1.782E3,-6.0030162E-2,2.42E2,-5.9426863E-2,1.8392714E-2,-2.1401009E-2,4.75E3,3.7E2,4.554E3,6.033E3,1.0833E4,3.4608733E-2,7.5358315E-3,-7.827275E-2,5.960341E-2,-3.4956322E-3,-1.1368814E-2,-1.001352E-1],"split_indices":[5,7,8,5,0,7,0,0,0,5,7,5,5,5,0,0,0,0,0,0,0],"split_type":[0,0,0,0,0,0,0,0,0,0,0,0,0,0,0,0,0,0,0,0,0],"sum_hessian":[6.404966E1,3.7572932E0,6.029237E1,2.1867707E0,1.5705225E0,5.8957695E1,1.3346734E0,1.0033239E0,1.1834466E0,5.272628E1,6.2314167E0,3.4556087E1,1.8170189E1,4.487619E0,1.7437981E0,3.0688034E1,3.8680556E0,7.422143E0,1.0748046E1,3.246305E0,1.2413138E0],"tree_param":{"num_deleted":"0","num_feature":"11","num_nodes":"21","size_leaf_vector":"1"}},{"base_weights":[-2.5634063E-2,2.228153E-1,-5.8312614E-2,6.685295E-1,-6.919732E-1,-1.0912223E-1,2.2756498E-1,-4.486982E-3,9.755825E-2,-8.7272964E-2,-1.6339663E-2,-4.545898E-2,-7.43212E-1,5.305846E-1,-3.1780785E-1,-9.632318E-2,6.494441E-2,-1.6624512E-1,-1.2710984E-1,2.6396877E-1,8.398827E-2,-7.936031E-2,2.3975551E-2,-3.855237E-2,-1.8782329E-3,-4.2745862E-2,1.764672E-2,6.526236E-2,-4.1394357E-2],"categories":[],"categories_nodes":[],"categories_segments":[],"categories_sizes":[],"default_left":[0,0,0,0,0,0,0,0,0,0,0,0,0,0,0,0,0,0,0,0,0,0,0,0,0,0,0,0,0],"id":42,"left_children":[1,3,5,7,9,11,13,-1,-1,-1,-1,15,17,19,21,23,-1,25,-1,27,-1,-1,-1,-1,-1,-1,-1,-1,-1],"loss_changes":[5.394273E-1,3.6202984E0,8.6869E-1,1.2958581E0,1.4675832E-1,1.9847968E0,1.671046E0,0E0,0E0,0E0,0E0,1.7063781E0,1.1584284E0,2.9112232E-1,1.2176028E0,9.8406935E-1,0E0,3.7078094E-1,0E0,1.5343467E0,0E0,0E0,0E0,0E0,0E0,0E0,0E0,0E0,0E0],"parents":[2147483647,0,0,1,1,2,2,3,3,4,4,5,5,6,6,11,11,12,12,13,13,14,14,15,15,17,17,19,19],"right_children":[2,4,6,8,10,12,14,-1,-1,-1,-1,16,18,20,22,24,-1,26,-1,28,-1,-1,-1,-1,-1,-1,-1,-1,-1],"split_conditions":[3E2,2.859E3,3.013E3,3.539E3,1E0,2.451E3,1E0,-4.486982E-3,9.755825E-2,-8.7272964E-2,-1.6339663E-2,2.115E3,4.006E3,5.064E3,4.167E3,2.785E3,6.494441E-2,3.073E3,-1.2710984E-1,4.167E3,8.398827E-2,-7.936031E-2,2.3975551E-2,-3.855237E-2,-1.8782329E-3,-4.2745862E-2,1.764672E-2,6.526236E-2,-4.1394357E-2],"split_indices":[8,6,6,5,2,6,2,0,0,0,0,6,5,6,5,5,0,5,0,6,0,0,0,0,0,0,0,0,0],"split_type":[0,0,0,0,0,0,0,0,0,0,0,0,0,0,0,0,0,0,0,0,0,0,0,0,0,0,0,0,0],"sum_hessian":[6.3840084E1,6.744491E0,5.7095592E1,4.7159343E0,2.0285563E0,4.9004253E1,8.091337E0,1.6759483E0,3.0399864E0,1.0264492E0,1.0021073E0,4.5506996E1,3.4972568E0,5.2187924E0,2.8725452E0,4.3205883E1,2.3011162E0,2.2992063E0,1.1980504E0,3.7981887E0,1.4206038E0,1.3215027E0,1.5510426E0,8.295322E0,3.4910557E1,1.1644146E0,1.1347916E0,2.4378471E0,1.3603415E0],"tree_param":{"num_deleted":"0","num_feature":"11","num_nodes":"29","size_leaf_vector":"1"}},{"base_weights":[-2.4155794E-2,7.83482E-2,-9.8247446E-2,-6.5042906E-2,6.8895596E-1,-7.570233E-1,1.0647991E-2,6.534024E-2,-4.2478862E-1,8.270498E-2,1.3342783E-2,-9.7615093E-1,-8.301979E-3,8.70265E-2,-7.241638E-2,-2.8055882E-1,2.677417E-1,-9.696728E-2,1.8271519E-2,-1.0451389E-2,-1.2831287E-1,-6.817908E-2,-1.2142903E-2,-7.1852975E-2,9.147119E-3,7.480784E-3,6.9341265E-2,3.820796E-2,-3.484258E-2,-2.761286E-2,1.1496929E-2],"categories":[],"categories_nodes":[],"categories_segments":[],"categories_sizes":[],"default_left":[0,0,0,0,0,0,0,0,0,0,0,0,0,0,0,0,0,0,0,0,0,0,0,0,0,0,0,0,0,0,0],"id":43,"left_children":[1,3,5,7,9,11,13,15,17,-1,-1,19,-1,-1,21,23,25,-1,27,-1,-1,-1,29,-1,-1,-1,-1,-1,-1,-1,-1],"loss_changes":[4.9845737E-1,2.4672606E0,2.7305994E0,1.1215566E0,2.9991388E-1,7.1610665E-1,2.4588945E0,1.3341057E0,1.5475129E0,0E0,0E0,9.308765E-1,0E0,0E0,1.1494429E0,1.226915E0,9.2184097E-1,0E0,7.30316E-1,0E0,0E0,0E0,1.0284071E0,0E0,0E0,0E0,0E0,0E0,0E0,0E0,0E0],"parents":[2147483647,0,0,1,1,2,2,3,3,4,4,5,5,6,6,7,7,8,8,11,11,14,14,15,15,16,16,18,18,22,22],"right_children":[2,4,6,8,10,12,14,16,18,-1,-1,20,-1,-1,22,24,26,-1,28,-1,-1,-1,30,-1,-1,-1,-1,-1,-1,-1,-1],"split_conditions":[1.27E2,1.15E2,1.3E2,4.167E3,2.118E3,5E3,1.33E2,2.439E3,4.6E3,8.270498E-2,1.3342783E-2,2.5E3,-8.301979E-3,8.70265E-2,1.36E2,1.612E1,1.01E2,-9.696728E-2,1E0,-1.0451389E-2,-1.2831287E-1,-6.817908E-2,4.288E3,-7.1852975E-2,9.147119E-3,7.480784E-3,6.9341265E-2,3.820796E-2,-3.484258E-2,-2.761286E-2,1.1496929E-2],"split_indices":[7,7,7,5,6,5,7,5,5,0,0,5,0,0,7,6,7,0,2,0,0,0,5,0,0,0,0,0,0,0,0],"split_type":[0,0,0,0,0,0,0,0,0,0,0,0,0,0,0,0,0,0,0,0,0,0,0,0,0,0,0,0,0,0,0],"sum_hessian":[6.361882E1,2.6667513E1,3.6951305E1,2.2319603E1,4.3479104E0,4.397326E0,3.255398E1,1.6982855E1,5.3367486E0,3.0908253E0,1.2570848E0,2.9801507E0,1.4171752E0,2.0334287E0,3.0520552E1,6.126562E0,1.0856292E1,1.8603153E0,3.4764335E0,1.1253307E0,1.85482E0,1.8189597E0,2.8701591E1,2.386127E0,3.7404351E0,8.279416E0,2.5768764E0,1.7240345E0,1.752399E0,8.9473915E0,1.97542E1],"tree_param":{"num_deleted":"0","num_feature":"11","num_nodes":"31","size_leaf_vector":"1"}},{"base_weights":[-2.3500603E-2,-2.8026935E-1,6.0839276E-3,-7.210348E-2,-5.2169748E-2,1.1947096E-1,-7.927576E-2,2.238112E-2,-2.231944E-1,-3.184507E-2,7.670072E-1,-6.7897105E-1,2.5406322E-2,-5.977599E-2,1.671536E-2,9.942201E-2,-3.7485826E-1,8.943425E-2,1.4077726E-2,-8.9322937E-1,-5.2589243E-3,7.4043065E-2,-4.323541E-2,4.9695533E-2,-7.68354E-3,-7.289273E-2,2.3406684E-2,-9.873455E-3,-1.2000664E-1,-4.9866837E-2,3.615771E-3],"categories":[],"categories_nodes":[],"categories_segments":[],"categories_sizes":[],"default_left":[0,0,0,0,0,0,0,0,0,0,0,0,0,0,0,0,0,0,0,0,0,0,0,0,0,0,0,0,0,0,0],"id":44,"left_children":[1,3,5,7,-1,9,11,-1,13,15,17,19,21,-1,-1,23,25,-1,-1,27,-1,-1,29,-1,-1,-1,-1,-1,-1,-1,-1],"loss_changes":[4.9016365E-1,2.9732406E-1,5.7699925E-1,2.61842E-1,0E0,2.5310984E0,2.1550753E0,0E0,6.318317E-1,1.0142125E0,2.6368713E-1,6.3709044E-1,1.5023185E0,0E0,0E0,1.1930743E0,1.5105326E0,0E0,0E0,7.921274E-1,0E0,0E0,1.0405097E0,0E0,0E0,0E0,0E0,0E0,0E0,0E0,0E0],"parents":[2147483647,0,0,1,1,2,2,3,3,5,5,6,6,8,8,9,9,10,10,11,11,12,12,15,15,16,16,19,19,22,22],"right_children":[2,4,6,8,-1,10,12,-1,14,16,18,20,22,-1,-1,24,26,-1,-1,28,-1,-1,30,-1,-1,-1,-1,-1,-1,-1,-1],"split_conditions":[1E0,2E0,1.27E2,2.62E3,-5.2169748E-2,1.15E2,1.3E2,2.238112E-2,4.6E3,4.167E3,2.254E3,4.945E3,1.33E2,-5.977599E-2,1.671536E-2,1E0,4.75E3,8.943425E-2,1.4077726E-2,2.5E3,-5.2589243E-3,7.4043065E-2,1.4E2,4.9695533E-2,-7.68354E-3,-7.289273E-2,2.3406684E-2,-9.873455E-3,-1.2000664E-1,-4.9866837E-2,3.615771E-3],"split_indices":[9,10,7,5,0,7,7,0,5,5,6,5,7,0,0,0,5,0,0,5,0,0,7,0,0,0,0,0,0,0,0],"split_type":[0,0,0,0,0,0,0,0,0,0,0,0,0,0,0,0,0,0,0,0,0,0,0,0,0,0,0,0,0,0,0],"sum_hessian":[6.330146E1,5.6645384E0,5.763692E1,3.7391744E0,1.925364E0,2.4582836E1,3.3054085E1,1.1011832E0,2.6379912E0,2.0697153E1,3.8856826E0,4.097067E0,2.8957016E1,1.0750533E0,1.5629379E0,1.5482381E1,5.2147727E0,2.8732986E0,1.012384E0,2.7353923E0,1.3616745E0,1.6791221E0,2.7277895E1,4.196977E0,1.1285404E1,3.1728165E0,2.0419562E0,1.1303507E0,1.6050417E0,3.2653642E0,2.4012531E1],"tree_param":{"num_deleted":"0","num_feature":"11","num_nodes":"31","size_leaf_vector":"1"}},{"base_weights":[-2.2320269E-2,-7.457727E-2,1.3394618E-1,1.135974E-2,-3.3174056E-1,-4.1856084E-2,6.3954896E-1,-1.1149262E-1,5.598381E-1,-6.826216E-1,-1.20181665E-1,3.0594072E-1,-2.6141012E-1,7.408668E-2,1.6304357E-2,3.7007965E-2,-6.241208E-1,6.7037153E-1,1.2414078E-2,-2.6751528E-2,-8.498547E-2,-7.371496E-2,5.330317E-2,-3.160439E-2,7.772734E-2,-9.698052E-2,-3.258475E-2,-2.8978914E-2,1.7752469E-2,5.255753E-4,-8.2267165E-2,1.7029233E-2,8.8113435E-2,6.403048E-2,-1.4600537E-2,-3.6102552E-2,3.8889658E-2],"categories":[],"categories_nodes":[],"categories_segments":[],"categories_sizes":[],"default_left":[0,0,0,0,0,0,0,0,0,0,0,0,0,0,0,0,0,0,0,0,0,0,0,0,0,0,0,0,0,0,0,0,0,0,0,0,0],"id":45,"left_children":[1,3,5,7,9,11,13,15,17,19,21,23,25,-1,-1,27,29,31,-1,-1,-1,-1,33,-1,-1,-1,35,-1,-1,-1,-1,-1,-1,-1,-1,-1,-1],"loss_changes":[5.3230876E-1,1.0772815E0,1.4833441E0,2.5808594E0,8.2358694E-1,1.0801202E0,8.628547E-2,2.4111495E0,2.5417066E-1,7.637954E-2,9.838372E-1,1.8666387E0,1.3573253E0,0E0,0E0,1.21175E0,8.918357E-1,4.1497064E-1,0E0,0E0,0E0,0E0,1.0084358E0,0E0,0E0,0E0,1.1801839E0,0E0,0E0,0E0,0E0,0E0,0E0,0E0,0E0,0E0,0E0],"parents":[2147483647,0,0,1,1,2,2,3,3,4,4,5,5,6,6,7,7,8,8,9,9,10,10,11,11,12,12,15,15,16,16,17,17,22,22,26,26],"right_children":[2,4,6,8,10,12,14,16,18,20,22,24,26,-1,-1,28,30,32,-1,-1,-1,-1,34,-1,-1,-1,36,-1,-1,-1,-1,-1,-1,-1,-1,-1,-1],"split_conditions":[2E0,6.033E3,6.5E3,4.75E3,1E0,1.27E2,2.79E2,4.166E3,1.62E2,8.334E3,6.783E3,1.612E1,3.073E3,7.408668E-2,1.6304357E-2,8.1E1,1E0,1E0,1.2414078E-2,-2.6751528E-2,-8.498547E-2,-7.371496E-2,7.933E3,-3.160439E-2,7.772734E-2,-9.698052E-2,1.717E3,-2.8978914E-2,1.7752469E-2,5.255753E-4,-8.2267165E-2,1.7029233E-2,8.8113435E-2,6.403048E-2,-1.4600537E-2,-3.6102552E-2,3.8889658E-2],"split_indices":[2,5,5,5,10,7,7,5,7,5,5,6,5,0,0,7,3,10,0,0,0,0,5,0,0,0,6,0,0,0,0,0,0,0,0,0,0],"split_type":[0,0,0,0,0,0,0,0,0,0,0,0,0,0,0,0,0,0,0,0,0,0,0,0,0,0,0,0,0,0,0,0,0,0,0,0,0],"sum_hessian":[6.2962574E1,4.7575592E1,1.538698E1,3.637566E1,1.1199934E1,1.2097719E1,3.2892613E0,3.0369902E1,6.005758E0,3.3752635E0,7.8246703E0,4.529325E0,7.568394E0,2.2549965E0,1.0342647E0,2.426772E1,6.102182E0,4.3608284E0,1.6449294E0,1.7158449E0,1.6594187E0,1.0042307E0,6.8204393E0,2.0946414E0,2.4346836E0,1.0572333E0,6.511161E0,6.977641E0,1.729008E1,1.6968743E0,4.405308E0,1.8290358E0,2.5317926E0,1.1679559E0,5.6524835E0,3.7401063E0,2.7710545E0],"tree_param":{"num_deleted":"0","num_feature":"11","num_nodes":"37","size_leaf_vector":"1"}},{"base_weights":[-2.0941053E-2,2.1458174E-1,-5.1749375E-2,6.406742E-1,-6.282564E-2,-9.879174E-2,2.1473984E-1,-4.759212E-3,9.498795E-2,-3.9650273E-2,-6.7535555E-1,5.024585E-1,-3.1526813E-1,-1.0416279E-1,4.375992E-1,-1.5715303E-1,-1.1332216E-1,7.135187E-2,6.699716E-2,1.7040588E-2,-5.651453E-2,-4.2961594E-2,-1.5911965E-3,7.48957E-2,-2.8752184E-2,1.6631905E-2,-4.450952E-2,-6.101325E-2,7.125337E-2],"categories":[],"categories_nodes":[],"categories_segments":[],"categories_sizes":[],"default_left":[0,0,0,0,0,0,0,0,0,0,0,0,0,0,0,0,0,0,0,0,0,0,0,0,0,0,0,0,0],"id":46,"left_children":[1,3,5,7,-1,9,11,-1,-1,13,15,17,19,21,23,25,-1,-1,27,-1,-1,-1,-1,-1,-1,-1,-1,-1,-1],"loss_changes":[4.726947E-1,3.1149988E0,7.365524E-1,1.2182264E0,0E0,1.6503662E0,1.5120306E0,0E0,0E0,1.4517378E0,8.928001E-1,5.1641357E-1,5.4990804E-1,1.1719122E0,1.4866124E0,3.7936532E-1,0E0,0E0,1.7931527E0,0E0,0E0,0E0,0E0,0E0,0E0,0E0,0E0,0E0,0E0],"parents":[2147483647,0,0,1,1,2,2,3,3,5,5,6,6,9,9,10,10,11,11,12,12,13,13,14,14,15,15,18,18],"right_children":[2,4,6,8,-1,10,12,-1,-1,14,16,18,20,22,24,26,-1,-1,28,-1,-1,-1,-1,-1,-1,-1,-1,-1,-1],"split_conditions":[3E2,2.859E3,3.013E3,3.539E3,-6.282564E-2,2.451E3,2.01E2,-4.759212E-3,9.498795E-2,1.929E3,4.006E3,4.75E3,1E0,2.785E3,4.6E3,2.816E3,-1.1332216E-1,7.135187E-2,5.5E3,1.7040588E-2,-5.651453E-2,-4.2961594E-2,-1.5911965E-3,7.48957E-2,-2.8752184E-2,1.6631905E-2,-4.450952E-2,-6.101325E-2,7.125337E-2],"split_indices":[8,6,6,5,0,6,7,0,0,6,5,6,2,5,5,6,0,0,6,0,0,0,0,0,0,0,0,0,0],"split_type":[0,0,0,0,0,0,0,0,0,0,0,0,0,0,0,0,0,0,0,0,0,0,0,0,0,0,0,0,0],"sum_hessian":[6.2614426E1,6.5530157E0,5.606141E1,4.511906E0,2.0411096E0,4.8184807E1,7.8766026E0,1.6609181E0,2.850988E0,4.467138E1,3.5134296E0,5.1388955E0,2.7377074E0,4.0040607E1,4.6307716E0,2.2782202E0,1.2352096E0,3.0311954E0,2.1076999E0,1.0380813E0,1.6996261E0,7.716269E0,3.2324337E1,3.216693E0,1.4140788E0,1.2718362E0,1.0063839E0,1.0554448E0,1.0522552E0],"tree_param":{"num_deleted":"0","num_feature":"11","num_nodes":"29","size_leaf_vector":"1"}},{"base_weights":[-1.9696562E-2,-6.943374E-2,1.305707E-1,1.1831642E-2,-3.1119537E-1,-3.6255274E-2,6.173677E-1,-1.03970386E-1,5.3604007E-1,-5.923721E-1,-7.430106E-2,2.935867E-1,-2.4255608E-1,7.082162E-2,1.7356033E-2,3.2884385E-2,-5.6924176E-1,7.2792846E-1,2.1212822E-1,-8.3628815E-1,2.1990886E-2,3.6918586E-1,-5.521958E-1,-2.9206604E-2,7.52891E-2,-9.233283E-2,-2.7509376E-2,1.0525434E-2,-4.5336675E-2,-9.3586944E-2,-1.9987548E-2,8.668042E-2,1.9565638E-2,-3.5001393E-2,5.7423007E-2,-3.8356762E-2,-1.0501697E-1,-2.7342517E-2,6.457081E-2,-8.356136E-2,1.4225766E-2,-3.308036E-2,3.7009627E-2],"categories":[],"categories_nodes":[],"categories_segments":[],"categories_sizes":[],"default_left":[0,0,0,0,0,0,0,0,0,0,0,0,0,0,0,0,0,0,0,0,0,0,0,0,0,0,0,0,0,0,0,0,0,0,0,0,0,0,0,0,0,0,0],"id":47,"left_children":[1,3,5,7,9,11,13,15,17,19,21,23,25,-1,-1,27,29,31,33,35,-1,37,39,-1,-1,-1,41,-1,-1,-1,-1,-1,-1,-1,-1,-1,-1,-1,-1,-1,-1,-1,-1],"loss_changes":[4.8234946E-1,9.5125395E-1,1.3294531E0,2.3054433E0,7.66628E-1,9.5115423E-1,4.4947267E-2,2.0048623E0,2.7246702E-1,1.2580638E0,1.8461028E0,1.6800593E0,1.2194489E0,0E0,0E0,9.291553E-1,7.804003E-1,1.1881757E-1,1.008341E0,2.1074772E-2,0E0,9.9720633E-1,9.318018E-1,0E0,0E0,0E0,1.0259804E0,0E0,0E0,0E0,0E0,0E0,0E0,0E0,0E0,0E0,0E0,0E0,0E0,0E0,0E0,0E0,0E0],"parents":[2147483647,0,0,1,1,2,2,3,3,4,4,5,5,6,6,7,7,8,8,9,9,10,10,11,11,12,12,15,15,16,16,17,17,18,18,19,19,21,21,22,22,26,26],"right_children":[2,4,6,8,10,12,14,16,18,20,22,24,26,-1,-1,28,30,32,34,36,-1,38,40,-1,-1,-1,42,-1,-1,-1,-1,-1,-1,-1,-1,-1,-1,-1,-1,-1,-1,-1,-1],"split_conditions":[2E0,6.033E3,6.5E3,4.75E3,1.65E2,1.27E2,2.79E2,4.166E3,1E0,1.25E4,2.42E2,1.612E1,3.073E3,7.082162E-2,1.7356033E-2,1.64E2,1.13E2,1.41E2,1.612E1,7.583E3,2.1990886E-2,7.451E3,3.5E2,-2.9206604E-2,7.52891E-2,-9.233283E-2,1.717E3,1.0525434E-2,-4.5336675E-2,-9.3586944E-2,-1.9987548E-2,8.668042E-2,1.9565638E-2,-3.5001393E-2,5.7423007E-2,-3.8356762E-2,-1.0501697E-1,-2.7342517E-2,6.457081E-2,-8.356136E-2,1.4225766E-2,-3.308036E-2,3.7009627E-2],"split_indices":[2,5,5,5,7,7,7,5,1,5,7,6,5,0,0,7,7,7,6,5,0,5,7,0,0,0,6,0,0,0,0,0,0,0,0,0,0,0,0,0,0,0,0],"split_type":[0,0,0,0,0,0,0,0,0,0,0,0,0,0,0,0,0,0,0,0,0,0,0,0,0,0,0,0,0,0,0,0,0,0,0,0,0,0,0,0,0,0,0],"sum_hessian":[6.232509E1,4.723022E1,1.5094869E1,3.6060097E1,1.1170124E1,1.1931463E1,3.1634052E0,3.0192076E1,5.86802E0,4.4215193E0,6.7486053E0,4.4282694E0,7.5031943E0,2.1313405E0,1.0320647E0,2.4047943E1,6.1441326E0,2.9017136E0,2.9663067E0,3.3776927E0,1.0438265E0,3.6182964E0,3.1303086E0,2.106461E0,2.321808E0,1.0105339E0,6.49266E0,2.1614538E1,2.4334059E0,2.3137853E0,3.8303473E0,1.8028353E0,1.0988781E0,1.1752232E0,1.7910835E0,1.9800049E0,1.3976877E0,1.0919375E0,2.5263588E0,2.0786924E0,1.0516163E0,3.7784574E0,2.7142026E0],"tree_param":{"num_deleted":"0","num_feature":"11","num_nodes":"43","size_leaf_vector":"1"}},{"base_weights":[-1.9542113E-2,-2.7568924E-1,9.9669695E-3,-7.067634E-2,-5.124144E-2,1.1769918E-1,-7.068498E-2,2.0472577E-2,-2.1356168E-1,-1.9736936E-2,7.346849E-1,-6.2738866E-1,2.8106784E-2,-5.703323E-2,1.5121326E-2,6.268975E-2,-4.3532425E-1,8.595797E-2,1.5706932E-2,-8.079346E-1,-6.4935545E-3,7.075199E-2,-3.522548E-2,-9.695553E-3,6.358745E-2,-8.0806874E-2,6.353865E-3,-1.0331084E-2,-1.064135E-1,-4.4290956E-2,3.8056483E-3],"categories":[],"categories_nodes":[],"categories_segments":[],"categories_sizes":[],"default_left":[0,0,0,0,0,0,0,0,0,0,0,0,0,0,0,0,0,0,0,0,0,0,0,0,0,0,0,0,0,0,0],"id":48,"left_children":[1,3,5,7,-1,9,11,-1,13,15,17,19,21,-1,-1,23,25,-1,-1,27,-1,-1,29,-1,-1,-1,-1,-1,-1,-1,-1],"loss_changes":[4.7831202E-1,2.809068E-1,5.069018E-1,2.2716421E-1,0E0,2.1294782E0,1.8567678E0,0E0,5.4937804E-1,7.593981E-1,1.9466639E-1,4.6368265E-1,1.2881364E0,0E0,0E0,1.7736247E0,7.325046E-1,0E0,0E0,5.688846E-1,0E0,0E0,8.47607E-1,0E0,0E0,0E0,0E0,0E0,0E0,0E0,0E0],"parents":[2147483647,0,0,1,1,2,2,3,3,5,5,6,6,8,8,9,9,10,10,11,11,12,12,15,15,16,16,19,19,22,22],"right_children":[2,4,6,8,-1,10,12,-1,14,16,18,20,22,-1,-1,24,26,-1,-1,28,-1,-1,30,-1,-1,-1,-1,-1,-1,-1,-1],"split_conditions":[1E0,2E0,1.27E2,2.62E3,-5.124144E-2,1.15E2,1.3E2,2.0472577E-2,4.6E3,2.253E3,2.168E3,4.945E3,1.33E2,-5.703323E-2,1.5121326E-2,1.387E3,2.138E3,8.595797E-2,1.5706932E-2,2.5E3,-6.4935545E-3,7.075199E-2,1.4E2,-9.695553E-3,6.358745E-2,-8.0806874E-2,6.353865E-3,-1.0331084E-2,-1.064135E-1,-4.4290956E-2,3.8056483E-3],"split_indices":[9,10,7,5,0,7,7,0,5,6,6,5,7,0,0,6,5,0,0,5,0,0,7,0,0,0,0,0,0,0,0],"split_type":[0,0,0,0,0,0,0,0,0,0,0,0,0,0,0,0,0,0,0,0,0,0,0,0,0,0,0,0,0,0,0],"sum_hessian":[6.191642E1,5.5343328E0,5.6382088E1,3.6617115E0,1.8726213E0,2.3941917E1,3.244017E1,1.1029843E0,2.5587273E0,2.0371984E1,3.569933E0,4.082751E0,2.835742E1,1.0086712E0,1.550056E0,1.770881E1,2.6631732E0,2.5338914E0,1.0360416E0,2.7602654E0,1.3224854E0,1.5506688E0,2.6806751E1,1.4500838E1,3.2079725E0,1.1695089E0,1.4936643E0,1.1101847E0,1.6500808E0,3.3158758E0,2.3490875E1],"tree_param":{"num_deleted":"0","num_feature":"11","num_nodes":"31","size_leaf_vector":"1"}},{"base_weights":[-1.8818194E-2,-6.7052074E-2,1.2793612E-1,-1.0256849E-1,4.414558E-2,-4.2397356E-1,2.5015098E-1,-5.1640235E-2,-6.847646E-2,1.4836003E-2,-8.38437E-2,9.973843E-2,6.0236937E-1,4.5576245E-1,-1.0979155E-1,4.67754E-1,-3.152723E-1,7.035362E-2,1.6303096E-2,-5.110807E-2,8.703797E-2,-5.6448015E-3,-6.357021E-2,2.1915106E-2,7.631751E-2,-6.795025E-2,2.0158948E-2],"categories":[],"categories_nodes":[],"categories_segments":[],"categories_sizes":[],"default_left":[0,0,0,0,0,0,0,0,0,0,0,0,0,0,0,0,0,0,0,0,0,0,0,0,0,0,0],"id":49,"left_children":[1,3,5,7,-1,9,11,13,-1,-1,-1,15,17,19,21,23,25,-1,-1,-1,-1,-1,-1,-1,-1,-1,-1],"loss_changes":[4.5130557E-1,9.0729284E-1,1.1728404E0,1.3115002E0,0E0,8.925617E-1,6.5921444E-1,1.314453E0,0E0,0E0,0E0,1.7836171E0,5.7067394E-2,2.2889612E0,1.0652962E0,2.7931178E-1,1.1972833E0,0E0,0E0,0E0,0E0,0E0,0E0,0E0,0E0,0E0,0E0],"parents":[2147483647,0,0,1,1,2,2,3,3,5,5,6,6,7,7,11,11,12,12,13,13,14,14,15,15,16,16],"right_children":[2,4,6,8,-1,10,12,14,-1,-1,-1,16,18,20,22,24,26,-1,-1,-1,-1,-1,-1,-1,-1,-1,-1],"split_conditions":[2E0,5.5E3,3.073E3,3.8E3,4.414558E-2,1.14E2,6.7E3,3E2,-6.847646E-2,1.4836003E-2,-8.38437E-2,4.467E3,2.79E2,1.8E2,2.42E2,4.226E3,1.01E3,7.035362E-2,1.6303096E-2,-5.110807E-2,8.703797E-2,-5.6448015E-3,-6.357021E-2,2.1915106E-2,7.631751E-2,-6.795025E-2,2.0158948E-2],"split_indices":[2,6,5,6,0,7,5,8,0,0,0,5,7,8,7,5,6,0,0,0,0,0,0,0,0,0,0],"split_type":[0,0,0,0,0,0,0,0,0,0,0,0,0,0,0,0,0,0,0,0,0,0,0,0,0,0,0],"sum_hessian":[6.1545074E1,4.6729534E1,1.481554E1,4.442499E1,2.304541E0,2.2383409E0,1.2577199E1,4.185259E1,2.5724034E0,1.2097867E0,1.0285542E0,9.712648E0,2.8645506E0,3.6003137E0,3.8252274E1,5.08043E0,4.632219E0,1.8395926E0,1.024958E0,1.0107337E0,2.5895798E0,3.573498E1,2.517294E0,3.7046862E0,1.3757437E0,2.5327392E0,2.0994797E0],"tree_param":{"num_deleted":"0","num_feature":"11","num_nodes":"27","size_leaf_vector":"1"}},{"base_weights":[-1.6580394E-2,-2.675934E-1,1.2148793E-2,-9.839751E-2,-5.690995E-2,-1.2184634E-1,7.555111E-2,-3.6462858E-1,3.190815E-2,